%YAML:1.0
# Generated: Tue Mar 26 02:33:25 2013
# 
# Training images: [ orange_tape/orange_tape-0000000000.png ], [ orange_tape/orange_tape-0000000001.png ], [ orange_tape/orange_tape-0000000002.png ], [ orange_tape/orange_tape-0000000003.png ], [ orange_tape/orange_tape-0000000004.png ], [ orange_tape/orange_tape-0000000005.png ], [ orange_tape/orange_tape-0000000006.png ], [ orange_tape/orange_tape-0000000007.png ], [ orange_tape/orange_tape-0000000008.png ], 
# Mask images: [ orange_tape/orange_tape-0000000000_mask.png ], [ orange_tape/orange_tape-0000000001_mask.png ], [ orange_tape/orange_tape-0000000002_mask.png ], [ orange_tape/orange_tape-0000000003_mask.png ], [ orange_tape/orange_tape-0000000004_mask.png ], [ orange_tape/orange_tape-0000000005_mask.png ], [ orange_tape/orange_tape-0000000006_mask.png ], [ orange_tape/orange_tape-0000000007_mask.png ], [ orange_tape/orange_tape-0000000008_mask.png ], 
# 
# Generated from a series of nine sample images of a notecard covered in BLAZE ORANGE duct tape under different lighting conditions. Used auto mode with 1 iteration.
blaze_orange: !!opencv-ml-svm
   svm_type: C_SVC
   kernel: { type:RBF, gamma:1.5000000000000001e-04 }
   C: 3.1250000000000000e+02
   term_criteria: { epsilon:2.2204460492503131e-16, iterations:1 }
   var_all: 2
   var_count: 2
   class_count: 2
   class_labels: !!opencv-matrix
      rows: 1
      cols: 2
      dt: i
      data: [ -1, 1 ]
   sv_total: 2
   support_vectors:
      - [ 18., 185. ]
      - [ 7., 210. ]
   decision_functions:
      -
         sv_count: 2
         rho: 0.
         alpha: [ 9.4458753860896252e+00, -9.4458753860896252e+00 ]
         index: [ 0, 1 ]
