%YAML:1.0
# Generated: Mon Mar 25 20:23:26 2013
# 
# Training images: [ orange_tape/orange_tape-0000000000.png ], [ orange_tape/orange_tape-0000000001.png ], [ orange_tape/orange_tape-0000000002.png ], [ orange_tape/orange_tape-0000000003.png ], [ orange_tape/orange_tape-0000000004.png ], [ orange_tape/orange_tape-0000000005.png ], [ orange_tape/orange_tape-0000000006.png ], [ orange_tape/orange_tape-0000000007.png ], [ orange_tape/orange_tape-0000000008.png ], 
# Mask images: [ orange_tape/orange_tape-0000000000_mask.png ], [ orange_tape/orange_tape-0000000001_mask.png ], [ orange_tape/orange_tape-0000000002_mask.png ], [ orange_tape/orange_tape-0000000003_mask.png ], [ orange_tape/orange_tape-0000000004_mask.png ], [ orange_tape/orange_tape-0000000005_mask.png ], [ orange_tape/orange_tape-0000000006_mask.png ], [ orange_tape/orange_tape-0000000007_mask.png ], [ orange_tape/orange_tape-0000000008_mask.png ], 
# 
# Generated from a series of nine sample images of a notecard covered in BLAZE ORANGE duct tape under different lighting conditions.
blaze_orange: !!opencv-ml-svm
   svm_type: C_SVC
   kernel: { type:RBF, gamma:5.0625000000000009e-01 }
   C: 5.0000000000000000e-01
   term_criteria: { epsilon:2.2204460492503131e-16, iterations:1000 }
   var_all: 2
   var_count: 2
   class_count: 2
   class_labels: !!opencv-matrix
      rows: 1
      cols: 2
      dt: i
      data: [ -1, 1 ]
   sv_total: 2000
   support_vectors:
      - [ 18., 185. ]
      - [ 5., 112. ]
      - [ 19., 166. ]
      - [ 7., 121. ]
      - [ 19., 171. ]
      - [ 17., 188. ]
      - [ 18., 178. ]
      - [ 42., 159. ]
      - [ 18., 64. ]
      - [ 16., 183. ]
      - [ 29., 130. ]
      - [ 15., 188. ]
      - [ 8., 60. ]
      - [ 17., 128. ]
      - [ 15., 182. ]
      - [ 17., 183. ]
      - [ 35., 77. ]
      - [ 18., 138. ]
      - [ 15., 184. ]
      - [ 72., 85. ]
      - [ 17., 182. ]
      - [ 16., 168. ]
      - [ 17., 178. ]
      - [ 16., 179. ]
      - [ 15., 183. ]
      - [ 18., 166. ]
      - [ 15., 185. ]
      - [ 66., 73. ]
      - [ 17., 178. ]
      - [ 16., 178. ]
      - [ 17., 179. ]
      - [ 105., 39. ]
      - [ 16., 172. ]
      - [ 17., 99. ]
      - [ 68., 45. ]
      - [ 45., 78. ]
      - [ 30., 64. ]
      - [ 16., 173. ]
      - [ 60., 32. ]
      - [ 15., 185. ]
      - [ 68., 60. ]
      - [ 19., 174. ]
      - [ 17., 181. ]
      - [ 18., 178. ]
      - [ 18., 174. ]
      - [ 16., 176. ]
      - [ 55., 64. ]
      - [ 16., 182. ]
      - [ 19., 167. ]
      - [ 51., 51. ]
      - [ 17., 181. ]
      - [ 26., 121. ]
      - [ 15., 184. ]
      - [ 60., 51. ]
      - [ 20., 171. ]
      - [ 84., 105. ]
      - [ 43., 65. ]
      - [ 73., 67. ]
      - [ 18., 177. ]
      - [ 45., 91. ]
      - [ 15., 186. ]
      - [ 15., 186. ]
      - [ 0., 21. ]
      - [ 18., 176. ]
      - [ 16., 181. ]
      - [ 30., 92. ]
      - [ 68., 106. ]
      - [ 135., 57. ]
      - [ 60., 18. ]
      - [ 15., 187. ]
      - [ 17., 176. ]
      - [ 15., 177. ]
      - [ 15., 174. ]
      - [ 15., 178. ]
      - [ 15., 185. ]
      - [ 72., 34. ]
      - [ 76., 109. ]
      - [ 20., 170. ]
      - [ 18., 181. ]
      - [ 15., 187. ]
      - [ 15., 179. ]
      - [ 20., 171. ]
      - [ 87., 79. ]
      - [ 16., 177. ]
      - [ 16., 182. ]
      - [ 17., 178. ]
      - [ 16., 184. ]
      - [ 24., 75. ]
      - [ 15., 177. ]
      - [ 38., 30. ]
      - [ 0., 54. ]
      - [ 16., 174. ]
      - [ 15., 169. ]
      - [ 19., 175. ]
      - [ 30., 110. ]
      - [ 17., 181. ]
      - [ 17., 179. ]
      - [ 5., 153. ]
      - [ 14., 178. ]
      - [ 17., 177. ]
      - [ 16., 181. ]
      - [ 18., 85. ]
      - [ 15., 175. ]
      - [ 16., 177. ]
      - [ 8., 73. ]
      - [ 16., 176. ]
      - [ 17., 174. ]
      - [ 16., 182. ]
      - [ 15., 186. ]
      - [ 19., 172. ]
      - [ 16., 176. ]
      - [ 12., 170. ]
      - [ 16., 182. ]
      - [ 30., 36. ]
      - [ 5., 161. ]
      - [ 17., 170. ]
      - [ 120., 39. ]
      - [ 17., 179. ]
      - [ 17., 176. ]
      - [ 19., 178. ]
      - [ 16., 184. ]
      - [ 16., 182. ]
      - [ 18., 164. ]
      - [ 19., 172. ]
      - [ 16., 182. ]
      - [ 16., 171. ]
      - [ 17., 180. ]
      - [ 50., 30. ]
      - [ 15., 172. ]
      - [ 17., 175. ]
      - [ 17., 170. ]
      - [ 19., 170. ]
      - [ 21., 53. ]
      - [ 15., 172. ]
      - [ 16., 179. ]
      - [ 15., 182. ]
      - [ 18., 174. ]
      - [ 159., 105. ]
      - [ 19., 173. ]
      - [ 39., 47. ]
      - [ 14., 162. ]
      - [ 171., 89. ]
      - [ 15., 182. ]
      - [ 16., 173. ]
      - [ 15., 183. ]
      - [ 17., 177. ]
      - [ 18., 173. ]
      - [ 20., 169. ]
      - [ 5., 178. ]
      - [ 17., 174. ]
      - [ 18., 177. ]
      - [ 16., 167. ]
      - [ 120., 20. ]
      - [ 30., 23. ]
      - [ 15., 177. ]
      - [ 15., 177. ]
      - [ 17., 179. ]
      - [ 15., 178. ]
      - [ 17., 173. ]
      - [ 22., 107. ]
      - [ 82., 140. ]
      - [ 20., 176. ]
      - [ 14., 174. ]
      - [ 16., 178. ]
      - [ 15., 187. ]
      - [ 15., 185. ]
      - [ 110., 64. ]
      - [ 15., 172. ]
      - [ 15., 185. ]
      - [ 174., 80. ]
      - [ 16., 170. ]
      - [ 15., 167. ]
      - [ 31., 146. ]
      - [ 14., 188. ]
      - [ 79., 120. ]
      - [ 10., 45. ]
      - [ 15., 185. ]
      - [ 0., 68. ]
      - [ 135., 96. ]
      - [ 14., 182. ]
      - [ 17., 180. ]
      - [ 18., 169. ]
      - [ 0., 104. ]
      - [ 15., 184. ]
      - [ 6., 204. ]
      - [ 0., 43. ]
      - [ 16., 169. ]
      - [ 13., 177. ]
      - [ 17., 180. ]
      - [ 14., 185. ]
      - [ 16., 178. ]
      - [ 15., 170. ]
      - [ 15., 183. ]
      - [ 15., 173. ]
      - [ 30., 49. ]
      - [ 18., 179. ]
      - [ 17., 166. ]
      - [ 79., 90. ]
      - [ 14., 172. ]
      - [ 17., 179. ]
      - [ 16., 165. ]
      - [ 15., 186. ]
      - [ 16., 176. ]
      - [ 17., 178. ]
      - [ 17., 180. ]
      - [ 23., 165. ]
      - [ 15., 183. ]
      - [ 16., 180. ]
      - [ 17., 177. ]
      - [ 15., 118. ]
      - [ 17., 178. ]
      - [ 16., 179. ]
      - [ 17., 175. ]
      - [ 15., 184. ]
      - [ 15., 183. ]
      - [ 20., 167. ]
      - [ 14., 182. ]
      - [ 17., 171. ]
      - [ 14., 185. ]
      - [ 13., 183. ]
      - [ 15., 171. ]
      - [ 8., 170. ]
      - [ 16., 179. ]
      - [ 19., 174. ]
      - [ 110., 96. ]
      - [ 15., 180. ]
      - [ 15., 185. ]
      - [ 28., 164. ]
      - [ 24., 146. ]
      - [ 16., 179. ]
      - [ 15., 185. ]
      - [ 16., 176. ]
      - [ 16., 178. ]
      - [ 18., 177. ]
      - [ 171., 112. ]
      - [ 10., 90. ]
      - [ 19., 173. ]
      - [ 14., 173. ]
      - [ 14., 174. ]
      - [ 14., 178. ]
      - [ 15., 184. ]
      - [ 83., 38. ]
      - [ 15., 179. ]
      - [ 15., 182. ]
      - [ 15., 178. ]
      - [ 26., 140. ]
      - [ 15., 173. ]
      - [ 17., 174. ]
      - [ 15., 184. ]
      - [ 14., 187. ]
      - [ 22., 154. ]
      - [ 15., 179. ]
      - [ 18., 173. ]
      - [ 14., 173. ]
      - [ 15., 174. ]
      - [ 6., 198. ]
      - [ 150., 23. ]
      - [ 13., 183. ]
      - [ 9., 170. ]
      - [ 0., 0. ]
      - [ 11., 155. ]
      - [ 15., 169. ]
      - [ 60., 96. ]
      - [ 15., 175. ]
      - [ 14., 189. ]
      - [ 14., 183. ]
      - [ 14., 176. ]
      - [ 16., 176. ]
      - [ 16., 179. ]
      - [ 20., 173. ]
      - [ 16., 180. ]
      - [ 21., 168. ]
      - [ 15., 180. ]
      - [ 44., 56. ]
      - [ 14., 188. ]
      - [ 14., 184. ]
      - [ 165., 36. ]
      - [ 14., 190. ]
      - [ 14., 188. ]
      - [ 23., 163. ]
      - [ 16., 177. ]
      - [ 5., 160. ]
      - [ 51., 99. ]
      - [ 16., 180. ]
      - [ 21., 163. ]
      - [ 14., 178. ]
      - [ 14., 186. ]
      - [ 17., 166. ]
      - [ 20., 172. ]
      - [ 16., 180. ]
      - [ 100., 59. ]
      - [ 17., 169. ]
      - [ 16., 176. ]
      - [ 15., 183. ]
      - [ 17., 170. ]
      - [ 16., 179. ]
      - [ 14., 186. ]
      - [ 14., 189. ]
      - [ 14., 189. ]
      - [ 14., 179. ]
      - [ 14., 175. ]
      - [ 13., 175. ]
      - [ 14., 179. ]
      - [ 0., 91. ]
      - [ 15., 176. ]
      - [ 20., 172. ]
      - [ 15., 184. ]
      - [ 10., 202. ]
      - [ 17., 176. ]
      - [ 15., 182. ]
      - [ 20., 169. ]
      - [ 10., 27. ]
      - [ 13., 178. ]
      - [ 43., 105. ]
      - [ 83., 68. ]
      - [ 8., 187. ]
      - [ 14., 178. ]
      - [ 18., 177. ]
      - [ 15., 179. ]
      - [ 30., 104. ]
      - [ 15., 173. ]
      - [ 26., 144. ]
      - [ 14., 179. ]
      - [ 8., 208. ]
      - [ 42., 39. ]
      - [ 15., 183. ]
      - [ 17., 175. ]
      - [ 17., 177. ]
      - [ 16., 178. ]
      - [ 7., 181. ]
      - [ 16., 176. ]
      - [ 14., 185. ]
      - [ 20., 174. ]
      - [ 15., 183. ]
      - [ 18., 176. ]
      - [ 13., 189. ]
      - [ 17., 176. ]
      - [ 150., 51. ]
      - [ 16., 173. ]
      - [ 14., 188. ]
      - [ 24., 147. ]
      - [ 13., 188. ]
      - [ 14., 175. ]
      - [ 15., 178. ]
      - [ 21., 177. ]
      - [ 18., 176. ]
      - [ 16., 180. ]
      - [ 15., 181. ]
      - [ 9., 182. ]
      - [ 16., 177. ]
      - [ 15., 178. ]
      - [ 15., 182. ]
      - [ 15., 183. ]
      - [ 78., 51. ]
      - [ 95., 96. ]
      - [ 14., 187. ]
      - [ 19., 175. ]
      - [ 17., 178. ]
      - [ 19., 175. ]
      - [ 85., 130. ]
      - [ 15., 183. ]
      - [ 17., 177. ]
      - [ 14., 192. ]
      - [ 18., 175. ]
      - [ 10., 194. ]
      - [ 117., 115. ]
      - [ 18., 171. ]
      - [ 15., 181. ]
      - [ 15., 176. ]
      - [ 170., 45. ]
      - [ 16., 168. ]
      - [ 17., 172. ]
      - [ 15., 182. ]
      - [ 14., 191. ]
      - [ 16., 178. ]
      - [ 14., 181. ]
      - [ 15., 184. ]
      - [ 14., 187. ]
      - [ 13., 184. ]
      - [ 70., 96. ]
      - [ 14., 178. ]
      - [ 7., 192. ]
      - [ 14., 182. ]
      - [ 16., 169. ]
      - [ 13., 190. ]
      - [ 14., 192. ]
      - [ 15., 184. ]
      - [ 16., 177. ]
      - [ 13., 179. ]
      - [ 27., 141. ]
      - [ 17., 176. ]
      - [ 16., 177. ]
      - [ 19., 170. ]
      - [ 16., 173. ]
      - [ 16., 178. ]
      - [ 28., 142. ]
      - [ 14., 177. ]
      - [ 15., 176. ]
      - [ 19., 176. ]
      - [ 15., 184. ]
      - [ 14., 168. ]
      - [ 15., 182. ]
      - [ 18., 174. ]
      - [ 15., 34. ]
      - [ 17., 177. ]
      - [ 168., 64. ]
      - [ 13., 180. ]
      - [ 15., 180. ]
      - [ 12., 189. ]
      - [ 98., 85. ]
      - [ 9., 178. ]
      - [ 20., 178. ]
      - [ 15., 182. ]
      - [ 21., 170. ]
      - [ 18., 169. ]
      - [ 19., 171. ]
      - [ 15., 181. ]
      - [ 12., 190. ]
      - [ 13., 173. ]
      - [ 11., 163. ]
      - [ 17., 177. ]
      - [ 14., 189. ]
      - [ 16., 172. ]
      - [ 14., 189. ]
      - [ 13., 109. ]
      - [ 18., 175. ]
      - [ 15., 182. ]
      - [ 14., 187. ]
      - [ 16., 178. ]
      - [ 8., 203. ]
      - [ 18., 173. ]
      - [ 15., 182. ]
      - [ 13., 192. ]
      - [ 17., 164. ]
      - [ 13., 199. ]
      - [ 17., 177. ]
      - [ 62., 163. ]
      - [ 15., 182. ]
      - [ 110., 55. ]
      - [ 160., 43. ]
      - [ 14., 182. ]
      - [ 15., 171. ]
      - [ 18., 171. ]
      - [ 17., 172. ]
      - [ 57., 74. ]
      - [ 21., 171. ]
      - [ 15., 178. ]
      - [ 14., 194. ]
      - [ 9., 191. ]
      - [ 18., 175. ]
      - [ 17., 177. ]
      - [ 14., 185. ]
      - [ 14., 186. ]
      - [ 15., 178. ]
      - [ 22., 163. ]
      - [ 63., 85. ]
      - [ 14., 189. ]
      - [ 19., 175. ]
      - [ 13., 184. ]
      - [ 13., 172. ]
      - [ 15., 177. ]
      - [ 15., 196. ]
      - [ 0., 34. ]
      - [ 15., 180. ]
      - [ 14., 189. ]
      - [ 13., 179. ]
      - [ 14., 186. ]
      - [ 90., 57. ]
      - [ 54., 40. ]
      - [ 20., 169. ]
      - [ 15., 171. ]
      - [ 14., 186. ]
      - [ 17., 176. ]
      - [ 17., 175. ]
      - [ 12., 196. ]
      - [ 13., 184. ]
      - [ 19., 173. ]
      - [ 128., 68. ]
      - [ 15., 178. ]
      - [ 38., 98. ]
      - [ 10., 202. ]
      - [ 14., 186. ]
      - [ 14., 187. ]
      - [ 15., 181. ]
      - [ 18., 173. ]
      - [ 8., 201. ]
      - [ 20., 167. ]
      - [ 14., 186. ]
      - [ 14., 187. ]
      - [ 30., 109. ]
      - [ 20., 159. ]
      - [ 17., 177. ]
      - [ 15., 177. ]
      - [ 9., 205. ]
      - [ 16., 177. ]
      - [ 9., 203. ]
      - [ 18., 167. ]
      - [ 15., 179. ]
      - [ 17., 167. ]
      - [ 13., 195. ]
      - [ 15., 182. ]
      - [ 16., 178. ]
      - [ 7., 213. ]
      - [ 15., 179. ]
      - [ 18., 175. ]
      - [ 10., 192. ]
      - [ 14., 168. ]
      - [ 18., 175. ]
      - [ 15., 182. ]
      - [ 15., 179. ]
      - [ 16., 177. ]
      - [ 15., 171. ]
      - [ 13., 184. ]
      - [ 11., 191. ]
      - [ 14., 187. ]
      - [ 20., 167. ]
      - [ 14., 186. ]
      - [ 15., 180. ]
      - [ 17., 177. ]
      - [ 15., 177. ]
      - [ 16., 178. ]
      - [ 18., 171. ]
      - [ 15., 177. ]
      - [ 26., 153. ]
      - [ 12., 196. ]
      - [ 15., 180. ]
      - [ 15., 179. ]
      - [ 15., 182. ]
      - [ 18., 171. ]
      - [ 17., 177. ]
      - [ 18., 174. ]
      - [ 11., 201. ]
      - [ 14., 183. ]
      - [ 10., 159. ]
      - [ 6., 167. ]
      - [ 7., 187. ]
      - [ 18., 167. ]
      - [ 14., 182. ]
      - [ 12., 184. ]
      - [ 17., 176. ]
      - [ 17., 176. ]
      - [ 14., 187. ]
      - [ 19., 164. ]
      - [ 28., 141. ]
      - [ 18., 174. ]
      - [ 14., 182. ]
      - [ 9., 200. ]
      - [ 14., 176. ]
      - [ 14., 187. ]
      - [ 15., 180. ]
      - [ 17., 177. ]
      - [ 17., 176. ]
      - [ 9., 206. ]
      - [ 18., 175. ]
      - [ 14., 182. ]
      - [ 18., 174. ]
      - [ 14., 187. ]
      - [ 12., 153. ]
      - [ 17., 177. ]
      - [ 11., 190. ]
      - [ 17., 175. ]
      - [ 14., 181. ]
      - [ 18., 174. ]
      - [ 12., 192. ]
      - [ 17., 175. ]
      - [ 17., 176. ]
      - [ 17., 177. ]
      - [ 9., 199. ]
      - [ 14., 191. ]
      - [ 15., 180. ]
      - [ 11., 198. ]
      - [ 18., 174. ]
      - [ 18., 176. ]
      - [ 17., 177. ]
      - [ 3., 183. ]
      - [ 15., 180. ]
      - [ 12., 177. ]
      - [ 17., 167. ]
      - [ 14., 184. ]
      - [ 18., 176. ]
      - [ 14., 187. ]
      - [ 18., 150. ]
      - [ 12., 181. ]
      - [ 14., 185. ]
      - [ 15., 171. ]
      - [ 17., 176. ]
      - [ 13., 183. ]
      - [ 14., 176. ]
      - [ 14., 181. ]
      - [ 15., 180. ]
      - [ 18., 175. ]
      - [ 14., 181. ]
      - [ 13., 195. ]
      - [ 14., 185. ]
      - [ 15., 171. ]
      - [ 15., 180. ]
      - [ 18., 171. ]
      - [ 14., 185. ]
      - [ 20., 168. ]
      - [ 21., 169. ]
      - [ 18., 171. ]
      - [ 18., 176. ]
      - [ 7., 193. ]
      - [ 19., 170. ]
      - [ 14., 175. ]
      - [ 19., 161. ]
      - [ 10., 199. ]
      - [ 14., 184. ]
      - [ 15., 177. ]
      - [ 15., 177. ]
      - [ 14., 180. ]
      - [ 3., 142. ]
      - [ 17., 176. ]
      - [ 13., 181. ]
      - [ 17., 176. ]
      - [ 13., 182. ]
      - [ 20., 166. ]
      - [ 13., 185. ]
      - [ 15., 177. ]
      - [ 14., 177. ]
      - [ 11., 197. ]
      - [ 8., 204. ]
      - [ 23., 146. ]
      - [ 14., 184. ]
      - [ 12., 177. ]
      - [ 14., 175. ]
      - [ 17., 167. ]
      - [ 17., 167. ]
      - [ 14., 186. ]
      - [ 17., 176. ]
      - [ 20., 163. ]
      - [ 15., 179. ]
      - [ 9., 198. ]
      - [ 14., 185. ]
      - [ 14., 180. ]
      - [ 15., 177. ]
      - [ 14., 185. ]
      - [ 14., 182. ]
      - [ 13., 189. ]
      - [ 14., 186. ]
      - [ 2., 154. ]
      - [ 11., 198. ]
      - [ 12., 188. ]
      - [ 9., 202. ]
      - [ 20., 168. ]
      - [ 14., 185. ]
      - [ 20., 162. ]
      - [ 6., 194. ]
      - [ 14., 184. ]
      - [ 9., 184. ]
      - [ 14., 175. ]
      - [ 9., 189. ]
      - [ 14., 185. ]
      - [ 20., 157. ]
      - [ 22., 166. ]
      - [ 14., 191. ]
      - [ 14., 185. ]
      - [ 14., 182. ]
      - [ 30., 119. ]
      - [ 14., 185. ]
      - [ 8., 185. ]
      - [ 14., 180. ]
      - [ 22., 167. ]
      - [ 18., 176. ]
      - [ 17., 193. ]
      - [ 8., 174. ]
      - [ 6., 156. ]
      - [ 10., 199. ]
      - [ 20., 166. ]
      - [ 8., 173. ]
      - [ 14., 184. ]
      - [ 12., 181. ]
      - [ 14., 182. ]
      - [ 9., 204. ]
      - [ 12., 181. ]
      - [ 13., 194. ]
      - [ 9., 191. ]
      - [ 12., 180. ]
      - [ 11., 185. ]
      - [ 14., 189. ]
      - [ 14., 187. ]
      - [ 14., 176. ]
      - [ 14., 189. ]
      - [ 14., 176. ]
      - [ 14., 176. ]
      - [ 6., 177. ]
      - [ 21., 167. ]
      - [ 10., 180. ]
      - [ 9., 180. ]
      - [ 7., 184. ]
      - [ 13., 182. ]
      - [ 10., 206. ]
      - [ 2., 136. ]
      - [ 14., 186. ]
      - [ 7., 193. ]
      - [ 10., 199. ]
      - [ 14., 194. ]
      - [ 10., 163. ]
      - [ 2., 195. ]
      - [ 0., 136. ]
      - [ 6., 192. ]
      - [ 30., 111. ]
      - [ 7., 163. ]
      - [ 11., 171. ]
      - [ 13., 197. ]
      - [ 7., 172. ]
      - [ 14., 184. ]
      - [ 4., 170. ]
      - [ 14., 184. ]
      - [ 12., 188. ]
      - [ 14., 184. ]
      - [ 14., 180. ]
      - [ 14., 180. ]
      - [ 12., 178. ]
      - [ 8., 204. ]
      - [ 13., 182. ]
      - [ 7., 200. ]
      - [ 10., 191. ]
      - [ 14., 183. ]
      - [ 10., 202. ]
      - [ 7., 193. ]
      - [ 14., 186. ]
      - [ 14., 187. ]
      - [ 8., 188. ]
      - [ 13., 182. ]
      - [ 14., 184. ]
      - [ 8., 177. ]
      - [ 9., 189. ]
      - [ 14., 180. ]
      - [ 14., 186. ]
      - [ 4., 173. ]
      - [ 9., 194. ]
      - [ 12., 184. ]
      - [ 10., 196. ]
      - [ 12., 193. ]
      - [ 11., 199. ]
      - [ 7., 155. ]
      - [ 0., 146. ]
      - [ 11., 184. ]
      - [ 13., 188. ]
      - [ 14., 186. ]
      - [ 13., 186. ]
      - [ 30., 127. ]
      - [ 9., 196. ]
      - [ 10., 199. ]
      - [ 4., 163. ]
      - [ 13., 182. ]
      - [ 9., 204. ]
      - [ 14., 184. ]
      - [ 9., 176. ]
      - [ 14., 183. ]
      - [ 13., 181. ]
      - [ 12., 179. ]
      - [ 13., 189. ]
      - [ 14., 186. ]
      - [ 12., 190. ]
      - [ 14., 186. ]
      - [ 11., 183. ]
      - [ 13., 180. ]
      - [ 14., 186. ]
      - [ 13., 181. ]
      - [ 8., 157. ]
      - [ 9., 187. ]
      - [ 13., 186. ]
      - [ 13., 182. ]
      - [ 14., 180. ]
      - [ 8., 197. ]
      - [ 5., 181. ]
      - [ 9., 189. ]
      - [ 11., 189. ]
      - [ 7., 197. ]
      - [ 14., 180. ]
      - [ 7., 174. ]
      - [ 13., 186. ]
      - [ 7., 173. ]
      - [ 11., 178. ]
      - [ 14., 180. ]
      - [ 8., 177. ]
      - [ 10., 197. ]
      - [ 14., 183. ]
      - [ 12., 195. ]
      - [ 8., 205. ]
      - [ 8., 180. ]
      - [ 9., 203. ]
      - [ 6., 165. ]
      - [ 5., 169. ]
      - [ 11., 199. ]
      - [ 12., 196. ]
      - [ 14., 180. ]
      - [ 9., 204. ]
      - [ 8., 172. ]
      - [ 13., 190. ]
      - [ 10., 184. ]
      - [ 6., 188. ]
      - [ 5., 162. ]
      - [ 13., 185. ]
      - [ 11., 197. ]
      - [ 13., 193. ]
      - [ 7., 188. ]
      - [ 2., 133. ]
      - [ 13., 183. ]
      - [ 9., 175. ]
      - [ 9., 187. ]
      - [ 8., 202. ]
      - [ 13., 183. ]
      - [ 12., 180. ]
      - [ 30., 72. ]
      - [ 6., 185. ]
      - [ 9., 165. ]
      - [ 7., 194. ]
      - [ 13., 183. ]
      - [ 8., 176. ]
      - [ 11., 185. ]
      - [ 6., 167. ]
      - [ 11., 196. ]
      - [ 13., 183. ]
      - [ 12., 184. ]
      - [ 11., 191. ]
      - [ 5., 143. ]
      - [ 11., 198. ]
      - [ 4., 156. ]
      - [ 14., 183. ]
      - [ 170., 109. ]
      - [ 11., 176. ]
      - [ 11., 198. ]
      - [ 13., 192. ]
      - [ 10., 198. ]
      - [ 9., 207. ]
      - [ 6., 190. ]
      - [ 13., 190. ]
      - [ 8., 206. ]
      - [ 14., 183. ]
      - [ 7., 181. ]
      - [ 8., 193. ]
      - [ 4., 210. ]
      - [ 13., 183. ]
      - [ 11., 197. ]
      - [ 14., 183. ]
      - [ 14., 183. ]
      - [ 13., 180. ]
      - [ 7., 210. ]
      - [ 14., 203. ]
      - [ 12., 183. ]
      - [ 13., 183. ]
      - [ 13., 187. ]
      - [ 8., 201. ]
      - [ 13., 182. ]
      - [ 9., 199. ]
      - [ 5., 190. ]
      - [ 7., 187. ]
      - [ 12., 190. ]
      - [ 5., 138. ]
      - [ 10., 192. ]
      - [ 12., 196. ]
      - [ 5., 151. ]
      - [ 165., 146. ]
      - [ 9., 173. ]
      - [ 7., 188. ]
      - [ 9., 199. ]
      - [ 11., 196. ]
      - [ 7., 195. ]
      - [ 12., 187. ]
      - [ 12., 190. ]
      - [ 11., 196. ]
      - [ 13., 184. ]
      - [ 7., 200. ]
      - [ 10., 188. ]
      - [ 9., 197. ]
      - [ 6., 176. ]
      - [ 9., 186. ]
      - [ 9., 191. ]
      - [ 13., 185. ]
      - [ 12., 195. ]
      - [ 9., 183. ]
      - [ 11., 181. ]
      - [ 6., 157. ]
      - [ 10., 185. ]
      - [ 13., 180. ]
      - [ 10., 197. ]
      - [ 13., 185. ]
      - [ 10., 180. ]
      - [ 6., 184. ]
      - [ 11., 184. ]
      - [ 13., 185. ]
      - [ 8., 211. ]
      - [ 7., 198. ]
      - [ 13., 184. ]
      - [ 10., 186. ]
      - [ 9., 190. ]
      - [ 8., 188. ]
      - [ 12., 188. ]
      - [ 9., 205. ]
      - [ 13., 183. ]
      - [ 8., 196. ]
      - [ 13., 189. ]
      - [ 10., 168. ]
      - [ 174., 146. ]
      - [ 8., 156. ]
      - [ 10., 184. ]
      - [ 9., 203. ]
      - [ 8., 186. ]
      - [ 7., 168. ]
      - [ 8., 171. ]
      - [ 7., 196. ]
      - [ 13., 193. ]
      - [ 10., 175. ]
      - [ 11., 189. ]
      - [ 6., 182. ]
      - [ 5., 195. ]
      - [ 11., 174. ]
      - [ 13., 191. ]
      - [ 7., 206. ]
      - [ 13., 183. ]
      - [ 11., 179. ]
      - [ 12., 189. ]
      - [ 13., 197. ]
      - [ 3., 147. ]
      - [ 4., 185. ]
      - [ 5., 170. ]
      - [ 5., 172. ]
      - [ 13., 190. ]
      - [ 13., 190. ]
      - [ 13., 185. ]
      - [ 13., 183. ]
      - [ 13., 185. ]
      - [ 12., 184. ]
      - [ 13., 192. ]
      - [ 13., 188. ]
      - [ 13., 189. ]
      - [ 9., 196. ]
      - [ 6., 205. ]
      - [ 8., 159. ]
      - [ 13., 182. ]
      - [ 6., 211. ]
      - [ 13., 190. ]
      - [ 11., 179. ]
      - [ 6., 200. ]
      - [ 13., 196. ]
      - [ 2., 140. ]
      - [ 8., 203. ]
      - [ 12., 193. ]
      - [ 7., 195. ]
      - [ 12., 195. ]
      - [ 9., 182. ]
      - [ 13., 181. ]
      - [ 7., 170. ]
      - [ 11., 195. ]
      - [ 7., 198. ]
      - [ 12., 187. ]
      - [ 9., 182. ]
      - [ 9., 193. ]
      - [ 12., 186. ]
      - [ 11., 190. ]
      - [ 7., 189. ]
      - [ 29., 137. ]
      - [ 8., 204. ]
      - [ 8., 179. ]
      - [ 12., 194. ]
      - [ 13., 184. ]
      - [ 12., 195. ]
      - [ 9., 188. ]
      - [ 11., 192. ]
      - [ 3., 147. ]
      - [ 12., 187. ]
      - [ 12., 195. ]
      - [ 9., 199. ]
      - [ 8., 170. ]
      - [ 4., 149. ]
      - [ 7., 210. ]
      - [ 9., 194. ]
      - [ 13., 192. ]
      - [ 6., 210. ]
      - [ 7., 200. ]
      - [ 11., 187. ]
      - [ 12., 186. ]
      - [ 11., 182. ]
      - [ 13., 188. ]
      - [ 13., 187. ]
      - [ 8., 202. ]
      - [ 12., 184. ]
      - [ 13., 197. ]
      - [ 8., 195. ]
      - [ 11., 191. ]
      - [ 12., 199. ]
      - [ 7., 172. ]
      - [ 8., 206. ]
      - [ 12., 187. ]
      - [ 3., 156. ]
      - [ 7., 180. ]
      - [ 5., 188. ]
      - [ 12., 190. ]
      - [ 8., 168. ]
      - [ 6., 149. ]
      - [ 7., 170. ]
      - [ 8., 187. ]
      - [ 11., 190. ]
      - [ 6., 166. ]
      - [ 10., 207. ]
      - [ 13., 183. ]
      - [ 13., 190. ]
      - [ 7., 210. ]
      - [ 6., 209. ]
      - [ 6., 215. ]
      - [ 7., 213. ]
      - [ 11., 192. ]
      - [ 6., 211. ]
      - [ 3., 184. ]
      - [ 7., 189. ]
      - [ 7., 192. ]
      - [ 13., 184. ]
      - [ 6., 211. ]
      - [ 15., 178. ]
      - [ 7., 217. ]
      - [ 6., 190. ]
      - [ 7., 213. ]
      - [ 9., 206. ]
      - [ 18., 171. ]
      - [ 7., 198. ]
      - [ 10., 198. ]
      - [ 7., 210. ]
      - [ 7., 194. ]
      - [ 6., 185. ]
      - [ 9., 204. ]
      - [ 7., 198. ]
      - [ 14., 186. ]
      - [ 13., 194. ]
      - [ 15., 183. ]
      - [ 9., 202. ]
      - [ 11., 197. ]
      - [ 10., 199. ]
      - [ 18., 169. ]
      - [ 16., 173. ]
      - [ 6., 198. ]
      - [ 7., 206. ]
      - [ 9., 202. ]
      - [ 12., 192. ]
      - [ 15., 184. ]
      - [ 7., 193. ]
      - [ 21., 163. ]
      - [ 14., 187. ]
      - [ 12., 190. ]
      - [ 5., 172. ]
      - [ 9., 188. ]
      - [ 17., 176. ]
      - [ 9., 196. ]
      - [ 6., 205. ]
      - [ 8., 204. ]
      - [ 30., 127. ]
      - [ 17., 175. ]
      - [ 5., 213. ]
      - [ 15., 177. ]
      - [ 13., 184. ]
      - [ 10., 207. ]
      - [ 18., 171. ]
      - [ 9., 187. ]
      - [ 12., 187. ]
      - [ 4., 185. ]
      - [ 12., 179. ]
      - [ 12., 184. ]
      - [ 11., 186. ]
      - [ 3., 143. ]
      - [ 11., 191. ]
      - [ 7., 196. ]
      - [ 7., 200. ]
      - [ 9., 207. ]
      - [ 10., 168. ]
      - [ 20., 167. ]
      - [ 8., 203. ]
      - [ 7., 192. ]
      - [ 17., 179. ]
      - [ 8., 190. ]
      - [ 15., 182. ]
      - [ 8., 196. ]
      - [ 14., 185. ]
      - [ 15., 179. ]
      - [ 11., 199. ]
      - [ 8., 199. ]
      - [ 8., 205. ]
      - [ 5., 183. ]
      - [ 10., 205. ]
      - [ 6., 196. ]
      - [ 8., 203. ]
      - [ 9., 206. ]
      - [ 6., 194. ]
      - [ 12., 203. ]
      - [ 9., 184. ]
      - [ 16., 168. ]
      - [ 9., 204. ]
      - [ 13., 180. ]
      - [ 7., 193. ]
      - [ 5., 188. ]
      - [ 9., 210. ]
      - [ 15., 182. ]
      - [ 17., 170. ]
      - [ 8., 204. ]
      - [ 8., 204. ]
      - [ 14., 184. ]
      - [ 9., 197. ]
      - [ 12., 187. ]
      - [ 7., 193. ]
      - [ 10., 197. ]
      - [ 9., 196. ]
      - [ 6., 180. ]
      - [ 7., 187. ]
      - [ 6., 191. ]
      - [ 14., 185. ]
      - [ 9., 193. ]
      - [ 9., 203. ]
      - [ 12., 195. ]
      - [ 8., 206. ]
      - [ 8., 196. ]
      - [ 6., 185. ]
      - [ 18., 173. ]
      - [ 5., 190. ]
      - [ 12., 195. ]
      - [ 10., 197. ]
      - [ 20., 172. ]
      - [ 15., 172. ]
      - [ 9., 200. ]
      - [ 7., 184. ]
      - [ 8., 159. ]
      - [ 8., 193. ]
      - [ 15., 175. ]
      - [ 9., 203. ]
      - [ 14., 182. ]
      - [ 7., 202. ]
      - [ 9., 193. ]
      - [ 8., 195. ]
      - [ 3., 179. ]
      - [ 8., 202. ]
      - [ 0., 157. ]
      - [ 14., 175. ]
      - [ 14., 180. ]
      - [ 13., 185. ]
      - [ 6., 188. ]
      - [ 8., 185. ]
      - [ 8., 197. ]
      - [ 15., 177. ]
      - [ 13., 184. ]
      - [ 7., 210. ]
      - [ 5., 198. ]
      - [ 5., 181. ]
      - [ 9., 203. ]
      - [ 7., 206. ]
      - [ 13., 190. ]
      - [ 20., 168. ]
      - [ 8., 202. ]
      - [ 12., 194. ]
      - [ 15., 167. ]
      - [ 4., 174. ]
      - [ 8., 211. ]
      - [ 6., 200. ]
      - [ 15., 184. ]
      - [ 7., 197. ]
      - [ 9., 205. ]
      - [ 17., 174. ]
      - [ 13., 190. ]
      - [ 5., 189. ]
      - [ 13., 186. ]
      - [ 16., 176. ]
      - [ 12., 187. ]
      - [ 6., 194. ]
      - [ 12., 170. ]
      - [ 14., 172. ]
      - [ 13., 191. ]
      - [ 21., 177. ]
      - [ 10., 192. ]
      - [ 13., 172. ]
      - [ 14., 174. ]
      - [ 14., 176. ]
      - [ 13., 184. ]
      - [ 9., 184. ]
      - [ 16., 181. ]
      - [ 14., 181. ]
      - [ 10., 204. ]
      - [ 16., 177. ]
      - [ 3., 185. ]
      - [ 8., 194. ]
      - [ 3., 161. ]
      - [ 13., 185. ]
      - [ 16., 168. ]
      - [ 14., 184. ]
      - [ 8., 206. ]
      - [ 13., 188. ]
      - [ 6., 182. ]
      - [ 14., 179. ]
      - [ 8., 201. ]
      - [ 12., 181. ]
      - [ 8., 177. ]
      - [ 13., 183. ]
      - [ 6., 219. ]
      - [ 10., 197. ]
      - [ 17., 176. ]
      - [ 17., 164. ]
      - [ 15., 179. ]
      - [ 13., 189. ]
      - [ 16., 177. ]
      - [ 17., 172. ]
      - [ 8., 204. ]
      - [ 9., 205. ]
      - [ 18., 177. ]
      - [ 7., 188. ]
      - [ 6., 192. ]
      - [ 7., 220. ]
      - [ 4., 197. ]
      - [ 9., 204. ]
      - [ 8., 188. ]
      - [ 11., 198. ]
      - [ 17., 193. ]
      - [ 10., 199. ]
      - [ 15., 178. ]
      - [ 8., 182. ]
      - [ 13., 188. ]
      - [ 10., 202. ]
      - [ 7., 187. ]
      - [ 12., 189. ]
      - [ 10., 194. ]
      - [ 6., 177. ]
      - [ 7., 197. ]
      - [ 15., 182. ]
      - [ 11., 196. ]
      - [ 8., 183. ]
      - [ 18., 176. ]
      - [ 16., 176. ]
      - [ 13., 185. ]
      - [ 12., 188. ]
      - [ 15., 179. ]
      - [ 14., 179. ]
      - [ 9., 198. ]
      - [ 12., 198. ]
      - [ 7., 181. ]
      - [ 13., 191. ]
      - [ 8., 187. ]
      - [ 18., 178. ]
      - [ 13., 183. ]
      - [ 15., 183. ]
      - [ 16., 173. ]
      - [ 12., 183. ]
      - [ 15., 183. ]
      - [ 14., 180. ]
      - [ 6., 204. ]
      - [ 16., 184. ]
      - [ 13., 198. ]
      - [ 11., 190. ]
      - [ 9., 191. ]
      - [ 6., 204. ]
      - [ 13., 186. ]
      - [ 16., 180. ]
      - [ 13., 183. ]
      - [ 18., 171. ]
      - [ 3., 169. ]
      - [ 10., 194. ]
      - [ 8., 157. ]
      - [ 2., 170. ]
      - [ 5., 211. ]
      - [ 11., 199. ]
      - [ 15., 184. ]
      - [ 8., 201. ]
      - [ 15., 178. ]
      - [ 14., 186. ]
      - [ 16., 177. ]
      - [ 17., 176. ]
      - [ 16., 176. ]
      - [ 13., 184. ]
      - [ 15., 182. ]
      - [ 11., 179. ]
      - [ 18., 176. ]
      - [ 13., 194. ]
      - [ 10., 192. ]
      - [ 18., 166. ]
      - [ 8., 180. ]
      - [ 6., 182. ]
      - [ 8., 186. ]
      - [ 19., 161. ]
      - [ 10., 202. ]
      - [ 11., 171. ]
      - [ 11., 197. ]
      - [ 8., 176. ]
      - [ 9., 194. ]
      - [ 13., 175. ]
      - [ 17., 166. ]
      - [ 16., 174. ]
      - [ 13., 188. ]
      - [ 15., 180. ]
      - [ 18., 164. ]
      - [ 13., 189. ]
      - [ 5., 163. ]
      - [ 12., 188. ]
      - [ 14., 183. ]
      - [ 14., 162. ]
      - [ 12., 190. ]
      - [ 7., 200. ]
      - [ 14., 176. ]
      - [ 4., 176. ]
      - [ 13., 183. ]
      - [ 24., 147. ]
      - [ 17., 167. ]
      - [ 9., 187. ]
      - [ 4., 173. ]
      - [ 13., 182. ]
      - [ 7., 189. ]
      - [ 22., 154. ]
      - [ 11., 187. ]
      - [ 20., 168. ]
      - [ 9., 191. ]
      - [ 15., 185. ]
      - [ 18., 175. ]
      - [ 13., 184. ]
      - [ 7., 195. ]
      - [ 8., 215. ]
      - [ 8., 187. ]
      - [ 17., 172. ]
      - [ 11., 191. ]
      - [ 11., 195. ]
      - [ 15., 182. ]
      - [ 15., 183. ]
      - [ 12., 193. ]
      - [ 14., 176. ]
      - [ 7., 195. ]
      - [ 13., 182. ]
      - [ 13., 182. ]
      - [ 13., 186. ]
      - [ 12., 195. ]
      - [ 10., 199. ]
      - [ 15., 177. ]
      - [ 7., 174. ]
      - [ 10., 175. ]
      - [ 12., 193. ]
      - [ 14., 189. ]
      - [ 11., 196. ]
      - [ 20., 167. ]
      - [ 4., 172. ]
      - [ 8., 208. ]
      - [ 20., 174. ]
      - [ 14., 180. ]
      - [ 7., 181. ]
      - [ 14., 186. ]
      - [ 16., 179. ]
      - [ 14., 177. ]
      - [ 17., 175. ]
      - [ 13., 185. ]
      - [ 13., 180. ]
      - [ 13., 193. ]
      - [ 6., 184. ]
      - [ 8., 174. ]
      - [ 7., 186. ]
      - [ 16., 170. ]
      - [ 14., 176. ]
      - [ 15., 181. ]
      - [ 13., 190. ]
      - [ 10., 202. ]
      - [ 11., 181. ]
      - [ 5., 210. ]
      - [ 10., 192. ]
      - [ 18., 174. ]
      - [ 15., 177. ]
      - [ 2., 166. ]
      - [ 13., 189. ]
      - [ 23., 146. ]
      - [ 13., 186. ]
      - [ 14., 186. ]
      - [ 19., 174. ]
      - [ 9., 199. ]
      - [ 15., 184. ]
      - [ 10., 199. ]
      - [ 14., 182. ]
      - [ 17., 178. ]
      - [ 14., 185. ]
      - [ 8., 179. ]
      - [ 11., 191. ]
      - [ 17., 183. ]
      - [ 7., 200. ]
      - [ 13., 181. ]
      - [ 11., 190. ]
      - [ 5., 150. ]
      - [ 18., 166. ]
      - [ 11., 201. ]
      - [ 14., 178. ]
      - [ 13., 184. ]
      - [ 15., 169. ]
      - [ 13., 189. ]
      - [ 15., 181. ]
      - [ 19., 176. ]
      - [ 14., 190. ]
      - [ 13., 186. ]
      - [ 13., 187. ]
      - [ 14., 184. ]
      - [ 14., 180. ]
      - [ 17., 179. ]
      - [ 9., 199. ]
      - [ 15., 185. ]
      - [ 9., 199. ]
      - [ 18., 174. ]
      - [ 15., 171. ]
      - [ 12., 181. ]
      - [ 15., 172. ]
      - [ 7., 181. ]
      - [ 19., 174. ]
      - [ 12., 179. ]
      - [ 11., 186. ]
      - [ 4., 216. ]
      - [ 4., 170. ]
      - [ 15., 175. ]
      - [ 9., 199. ]
      - [ 15., 185. ]
      - [ 12., 188. ]
      - [ 13., 196. ]
      - [ 15., 182. ]
      - [ 11., 189. ]
      - [ 9., 191. ]
      - [ 16., 177. ]
      - [ 10., 201. ]
      - [ 12., 200. ]
      - [ 7., 200. ]
      - [ 5., 186. ]
      - [ 19., 172. ]
      - [ 20., 171. ]
      - [ 10., 207. ]
      - [ 8., 187. ]
      - [ 11., 189. ]
      - [ 10., 199. ]
      - [ 17., 167. ]
      - [ 14., 183. ]
      - [ 8., 208. ]
      - [ 22., 167. ]
      - [ 10., 181. ]
      - [ 16., 178. ]
      - [ 5., 177. ]
      - [ 5., 178. ]
      - [ 14., 187. ]
      - [ 14., 186. ]
      - [ 5., 158. ]
      - [ 5., 194. ]
      - [ 13., 188. ]
      - [ 12., 195. ]
      - [ 13., 187. ]
      - [ 5., 195. ]
      - [ 14., 192. ]
      - [ 18., 167. ]
      - [ 18., 178. ]
      - [ 6., 176. ]
      - [ 9., 195. ]
      - [ 8., 170. ]
      - [ 5., 188. ]
      - [ 10., 196. ]
      - [ 13., 192. ]
      - [ 14., 183. ]
      - [ 10., 188. ]
      - [ 28., 142. ]
      - [ 17., 178. ]
      - [ 3., 183. ]
      - [ 12., 186. ]
      - [ 10., 186. ]
      - [ 12., 184. ]
      - [ 26., 140. ]
      - [ 13., 178. ]
      - [ 15., 171. ]
      - [ 17., 176. ]
      - [ 15., 182. ]
      - [ 18., 167. ]
      - [ 15., 184. ]
      - [ 17., 175. ]
      - [ 15., 178. ]
      - [ 5., 206. ]
      - [ 12., 189. ]
      - [ 22., 166. ]
      - [ 16., 173. ]
      - [ 17., 177. ]
      - [ 12., 184. ]
      - [ 16., 179. ]
      - [ 11., 190. ]
      - [ 13., 194. ]
      - [ 13., 181. ]
      - [ 7., 179. ]
      - [ 7., 172. ]
      - [ 11., 196. ]
      - [ 13., 187. ]
      - [ 17., 188. ]
      - [ 13., 183. ]
      - [ 18., 175. ]
      - [ 14., 189. ]
      - [ 12., 182. ]
      - [ 14., 187. ]
      - [ 20., 157. ]
      - [ 26., 144. ]
      - [ 14., 186. ]
      - [ 17., 177. ]
      - [ 17., 181. ]
      - [ 15., 180. ]
      - [ 8., 172. ]
      - [ 9., 186. ]
      - [ 15., 180. ]
      - [ 11., 198. ]
      - [ 7., 188. ]
      - [ 16., 182. ]
      - [ 18., 174. ]
      - [ 4., 191. ]
      - [ 0., 165. ]
      - [ 11., 180. ]
      - [ 14., 180. ]
      - [ 14., 184. ]
      - [ 9., 170. ]
      - [ 15., 169. ]
      - [ 15., 173. ]
      - [ 12., 183. ]
      - [ 4., 180. ]
      - [ 14., 184. ]
      - [ 18., 177. ]
      - [ 14., 187. ]
      - [ 12., 187. ]
      - [ 8., 188. ]
      - [ 13., 182. ]
      - [ 14., 175. ]
      - [ 19., 172. ]
      - [ 19., 175. ]
      - [ 11., 185. ]
      - [ 13., 188. ]
      - [ 16., 173. ]
      - [ 10., 190. ]
      - [ 13., 190. ]
      - [ 16., 179. ]
      - [ 16., 180. ]
      - [ 3., 189. ]
      - [ 20., 162. ]
      - [ 14., 181. ]
      - [ 15., 183. ]
      - [ 13., 194. ]
      - [ 15., 174. ]
      - [ 13., 190. ]
      - [ 14., 187. ]
      - [ 15., 187. ]
      - [ 17., 167. ]
      - [ 14., 175. ]
      - [ 13., 185. ]
      - [ 17., 177. ]
      - [ 13., 197. ]
      - [ 14., 191. ]
      - [ 13., 183. ]
      - [ 20., 167. ]
      - [ 15., 177. ]
      - [ 12., 184. ]
      - [ 15., 180. ]
      - [ 17., 181. ]
      - [ 15., 187. ]
      - [ 2., 174. ]
      - [ 19., 175. ]
      - [ 16., 183. ]
      - [ 11., 184. ]
      - [ 17., 180. ]
      - [ 5., 168. ]
      - [ 12., 190. ]
      - [ 10., 185. ]
      - [ 13., 185. ]
      - [ 17., 177. ]
      - [ 4., 163. ]
      - [ 6., 166. ]
      - [ 13., 184. ]
      - [ 12., 190. ]
      - [ 16., 178. ]
      - [ 17., 179. ]
      - [ 17., 177. ]
      - [ 16., 171. ]
      - [ 5., 161. ]
      - [ 17., 176. ]
      - [ 13., 189. ]
      - [ 12., 184. ]
      - [ 15., 187. ]
      - [ 19., 164. ]
      - [ 13., 185. ]
      - [ 14., 184. ]
      - [ 171., 111. ]
      - [ 20., 172. ]
      - [ 9., 183. ]
      - [ 18., 175. ]
      - [ 11., 184. ]
      - [ 13., 184. ]
      - [ 19., 170. ]
      - [ 14., 182. ]
      - [ 18., 174. ]
      - [ 14., 183. ]
      - [ 11., 198. ]
      - [ 4., 192. ]
      - [ 2., 138. ]
      - [ 14., 185. ]
      - [ 14., 186. ]
      - [ 20., 166. ]
      - [ 17., 174. ]
      - [ 5., 163. ]
      - [ 11., 163. ]
      - [ 17., 177. ]
      - [ 2., 164. ]
      - [ 16., 179. ]
      - [ 10., 191. ]
      - [ 30., 119. ]
      - [ 16., 182. ]
      - [ 7., 177. ]
      - [ 5., 208. ]
      - [ 15., 178. ]
      - [ 7., 170. ]
      - [ 18., 174. ]
      - [ 16., 182. ]
      - [ 15., 178. ]
      - [ 15., 177. ]
      - [ 15., 182. ]
      - [ 14., 185. ]
      - [ 13., 182. ]
      - [ 21., 167. ]
      - [ 12., 179. ]
      - [ 16., 176. ]
      - [ 3., 166. ]
      - [ 15., 180. ]
      - [ 22., 163. ]
      - [ 9., 178. ]
      - [ 20., 171. ]
      - [ 15., 180. ]
      - [ 13., 182. ]
      - [ 18., 169. ]
      - [ 18., 181. ]
      - [ 8., 170. ]
      - [ 16., 178. ]
      - [ 13., 189. ]
      - [ 17., 175. ]
      - [ 0., 148. ]
      - [ 14., 178. ]
      - [ 14., 187. ]
      - [ 17., 174. ]
      - [ 14., 168. ]
      - [ 14., 186. ]
      - [ 7., 174. ]
      - [ 14., 182. ]
      - [ 16., 177. ]
      - [ 15., 182. ]
      - [ 9., 180. ]
      - [ 18., 173. ]
      - [ 14., 182. ]
      - [ 3., 187. ]
      - [ 4., 154. ]
      - [ 14., 187. ]
      - [ 8., 174. ]
      - [ 6., 175. ]
      - [ 17., 176. ]
      - [ 17., 176. ]
      - [ 13., 203. ]
      - [ 9., 189. ]
      - [ 7., 222. ]
      - [ 18., 171. ]
      - [ 15., 185. ]
      - [ 16., 179. ]
      - [ 12., 195. ]
      - [ 9., 190. ]
      - [ 18., 177. ]
      - [ 11., 202. ]
      - [ 15., 171. ]
      - [ 15., 180. ]
      - [ 6., 166. ]
      - [ 14., 173. ]
      - [ 17., 170. ]
      - [ 20., 169. ]
      - [ 17., 177. ]
      - [ 15., 179. ]
      - [ 17., 176. ]
      - [ 14., 175. ]
      - [ 14., 185. ]
      - [ 14., 189. ]
      - [ 4., 215. ]
      - [ 14., 180. ]
      - [ 15., 177. ]
      - [ 10., 159. ]
      - [ 13., 182. ]
      - [ 9., 189. ]
      - [ 12., 190. ]
      - [ 17., 178. ]
      - [ 14., 189. ]
      - [ 9., 189. ]
      - [ 14., 183. ]
      - [ 11., 196. ]
      - [ 11., 189. ]
      - [ 20., 166. ]
      - [ 16., 169. ]
      - [ 12., 177. ]
      - [ 17., 170. ]
      - [ 10., 185. ]
      - [ 13., 190. ]
      - [ 16., 178. ]
      - [ 11., 178. ]
      - [ 13., 177. ]
      - [ 18., 174. ]
      - [ 18., 177. ]
      - [ 13., 183. ]
      - [ 18., 206. ]
      - [ 5., 167. ]
      - [ 18., 175. ]
      - [ 8., 176. ]
      - [ 6., 173. ]
      - [ 14., 188. ]
      - [ 14., 186. ]
      - [ 3., 164. ]
      - [ 11., 196. ]
      - [ 19., 173. ]
      - [ 179., 148. ]
      - [ 162., 145. ]
      - [ 15., 182. ]
      - [ 15., 180. ]
      - [ 17., 177. ]
      - [ 9., 184. ]
      - [ 9., 181. ]
      - [ 8., 221. ]
      - [ 17., 169. ]
      - [ 3., 182. ]
      - [ 13., 192. ]
      - [ 15., 186. ]
      - [ 8., 176. ]
      - [ 14., 196. ]
      - [ 10., 208. ]
      - [ 18., 176. ]
      - [ 12., 179. ]
      - [ 15., 174. ]
      - [ 17., 178. ]
      - [ 13., 183. ]
      - [ 18., 175. ]
      - [ 12., 197. ]
      - [ 7., 172. ]
      - [ 15., 171. ]
      - [ 17., 177. ]
      - [ 14., 186. ]
      - [ 17., 175. ]
      - [ 5., 168. ]
      - [ 17., 177. ]
      - [ 15., 183. ]
      - [ 17., 179. ]
      - [ 7., 168. ]
      - [ 15., 184. ]
      - [ 14., 175. ]
      - [ 14., 189. ]
      - [ 14., 182. ]
      - [ 1., 159. ]
      - [ 15., 182. ]
      - [ 16., 184. ]
      - [ 5., 178. ]
      - [ 13., 181. ]
      - [ 14., 176. ]
      - [ 4., 157. ]
      - [ 14., 183. ]
      - [ 11., 174. ]
      - [ 15., 183. ]
      - [ 15., 184. ]
      - [ 15., 183. ]
      - [ 16., 177. ]
      - [ 20., 173. ]
      - [ 14., 180. ]
      - [ 14., 189. ]
      - [ 13., 182. ]
      - [ 9., 212. ]
      - [ 16., 178. ]
      - [ 16., 172. ]
      - [ 20., 169. ]
      - [ 14., 189. ]
      - [ 11., 198. ]
      - [ 12., 199. ]
      - [ 14., 184. ]
      - [ 13., 180. ]
      - [ 3., 147. ]
      - [ 5., 149. ]
      - [ 14., 187. ]
      - [ 15., 178. ]
      - [ 8., 171. ]
      - [ 16., 180. ]
      - [ 13., 183. ]
      - [ 14., 180. ]
      - [ 19., 167. ]
      - [ 5., 170. ]
      - [ 14., 176. ]
      - [ 8., 168. ]
      - [ 13., 190. ]
      - [ 5., 170. ]
      - [ 17., 173. ]
      - [ 9., 173. ]
      - [ 16., 176. ]
      - [ 17., 177. ]
      - [ 30., 72. ]
      - [ 27., 141. ]
      - [ 30., 104. ]
      - [ 29., 137. ]
      - [ 28., 141. ]
      - [ 20., 159. ]
      - [ 30., 109. ]
      - [ 17., 171. ]
      - [ 16., 169. ]
      - [ 15., 172. ]
      - [ 14., 168. ]
      - [ 12., 177. ]
      - [ 15., 180. ]
      - [ 15., 180. ]
      - [ 12., 184. ]
      - [ 15., 177. ]
      - [ 15., 171. ]
      - [ 15., 176. ]
      - [ 11., 176. ]
      - [ 14., 186. ]
      - [ 8., 178. ]
      - [ 15., 176. ]
      - [ 17., 176. ]
      - [ 14., 181. ]
      - [ 14., 178. ]
      - [ 14., 174. ]
      - [ 14., 186. ]
      - [ 20., 176. ]
      - [ 16., 178. ]
      - [ 13., 180. ]
      - [ 14., 185. ]
      - [ 17., 180. ]
      - [ 15., 181. ]
      - [ 14., 183. ]
      - [ 14., 186. ]
      - [ 15., 185. ]
      - [ 14., 180. ]
      - [ 14., 185. ]
      - [ 14., 179. ]
      - [ 16., 180. ]
      - [ 15., 188. ]
      - [ 12., 195. ]
      - [ 15., 182. ]
      - [ 14., 186. ]
      - [ 17., 176. ]
      - [ 17., 180. ]
      - [ 11., 182. ]
      - [ 14., 188. ]
      - [ 16., 182. ]
      - [ 21., 170. ]
      - [ 18., 176. ]
      - [ 15., 182. ]
      - [ 17., 177. ]
      - [ 15., 180. ]
      - [ 14., 187. ]
      - [ 14., 184. ]
      - [ 13., 173. ]
      - [ 17., 176. ]
      - [ 5., 157. ]
      - [ 4., 156. ]
      - [ 14., 184. ]
      - [ 16., 182. ]
      - [ 15., 179. ]
      - [ 23., 165. ]
      - [ 23., 163. ]
      - [ 19., 171. ]
      - [ 18., 174. ]
      - [ 17., 177. ]
      - [ 16., 178. ]
      - [ 13., 190. ]
      - [ 15., 184. ]
      - [ 21., 171. ]
      - [ 19., 173. ]
      - [ 18., 176. ]
      - [ 15., 179. ]
      - [ 16., 167. ]
      - [ 16., 165. ]
      - [ 19., 173. ]
      - [ 15., 177. ]
      - [ 10., 188. ]
      - [ 18., 175. ]
      - [ 17., 181. ]
      - [ 14., 178. ]
      - [ 17., 176. ]
      - [ 16., 182. ]
      - [ 17., 177. ]
      - [ 3., 155. ]
      - [ 19., 170. ]
      - [ 14., 185. ]
      - [ 13., 192. ]
      - [ 15., 185. ]
      - [ 14., 188. ]
      - [ 13., 192. ]
      - [ 17., 179. ]
      - [ 15., 182. ]
      - [ 19., 171. ]
      - [ 18., 171. ]
      - [ 12., 195. ]
      - [ 17., 178. ]
      - [ 17., 175. ]
      - [ 20., 170. ]
      - [ 13., 183. ]
      - [ 13., 193. ]
      - [ 20., 178. ]
      - [ 15., 186. ]
      - [ 14., 183. ]
      - [ 15., 177. ]
      - [ 16., 179. ]
      - [ 24., 146. ]
      - [ 14., 184. ]
      - [ 15., 186. ]
      - [ 17., 178. ]
      - [ 5., 200. ]
      - [ 14., 191. ]
      - [ 14., 185. ]
      - [ 9., 181. ]
      - [ 15., 183. ]
      - [ 15., 186. ]
      - [ 19., 175. ]
      - [ 15., 176. ]
      - [ 15., 170. ]
      - [ 5., 201. ]
      - [ 15., 184. ]
      - [ 12., 197. ]
      - [ 15., 181. ]
      - [ 2., 157. ]
      - [ 1., 135. ]
      - [ 12., 196. ]
      - [ 17., 180. ]
      - [ 14., 173. ]
      - [ 17., 176. ]
      - [ 15., 183. ]
      - [ 6., 170. ]
      - [ 7., 156. ]
      - [ 13., 192. ]
      - [ 21., 168. ]
      - [ 15., 173. ]
      - [ 15., 171. ]
      - [ 18., 176. ]
      - [ 17., 177. ]
      - [ 13., 182. ]
      - [ 18., 179. ]
      - [ 6., 167. ]
      - [ 16., 179. ]
      - [ 17., 176. ]
      - [ 17., 167. ]
      - [ 15., 173. ]
      - [ 18., 171. ]
      - [ 14., 177. ]
      - [ 13., 179. ]
      - [ 16., 177. ]
      - [ 15., 185. ]
      - [ 15., 185. ]
      - [ 14., 182. ]
      - [ 16., 176. ]
      - [ 18., 173. ]
      - [ 9., 165. ]
      - [ 14., 186. ]
      - [ 8., 217. ]
      - [ 15., 179. ]
      - [ 20., 163. ]
      - [ 13., 192. ]
      - [ 16., 178. ]
      - [ 15., 179. ]
      - [ 16., 176. ]
      - [ 14., 182. ]
      - [ 13., 182. ]
      - [ 1., 148. ]
      - [ 15., 182. ]
      - [ 16., 178. ]
      - [ 14., 180. ]
      - [ 16., 177. ]
      - [ 16., 178. ]
      - [ 17., 182. ]
      - [ 5., 154. ]
      - [ 19., 175. ]
      - [ 12., 153. ]
      - [ 19., 178. ]
      - [ 15., 184. ]
      - [ 15., 177. ]
      - [ 15., 178. ]
      - [ 16., 172. ]
      - [ 14., 187. ]
      - [ 18., 174. ]
      - [ 14., 187. ]
      - [ 5., 203. ]
      - [ 14., 184. ]
      - [ 6., 170. ]
      - [ 14., 181. ]
      - [ 3., 194. ]
      - [ 17., 176. ]
      - [ 30., 111. ]
      - [ 16., 180. ]
      - [ 12., 182. ]
      - [ 9., 180. ]
      - [ 17., 177. ]
      - [ 14., 185. ]
      - [ 14., 187. ]
      - [ 11., 155. ]
      - [ 7., 172. ]
      - [ 14., 186. ]
      - [ 19., 170. ]
      - [ 10., 163. ]
      - [ 16., 181. ]
      - [ 15., 179. ]
      - [ 21., 169. ]
      - [ 13., 182. ]
      - [ 20., 169. ]
      - [ 15., 177. ]
      - [ 1., 168. ]
      - [ 5., 164. ]
      - [ 14., 188. ]
      - [ 14., 185. ]
      - [ 2., 171. ]
      - [ 14., 178. ]
      - [ 18., 173. ]
      - [ 2., 177. ]
      - [ 18., 175. ]
      - [ 4., 150. ]
      - [ 14., 183. ]
      - [ 14., 182. ]
   decision_functions:
      -
         sv_count: 2000
         rho: -2.7671877483317697e-01
         alpha: [ 5.0000000000000000e-01, 5.0000000000000000e-01,
             5.0000000000000000e-01, 5.0000000000000000e-01,
             5.0000000000000000e-01, 5.0000000000000000e-01,
             5.0000000000000000e-01, 5.0000000000000000e-01,
             5.0000000000000000e-01, 5.0000000000000000e-01,
             5.0000000000000000e-01, 5.0000000000000000e-01,
             5.0000000000000000e-01, 5.0000000000000000e-01,
             5.0000000000000000e-01, 5.0000000000000000e-01,
             5.0000000000000000e-01, 5.0000000000000000e-01,
             5.0000000000000000e-01, 5.0000000000000000e-01,
             5.0000000000000000e-01, 5.0000000000000000e-01,
             5.0000000000000000e-01, 5.0000000000000000e-01,
             5.0000000000000000e-01, 5.0000000000000000e-01,
             5.0000000000000000e-01, 5.0000000000000000e-01,
             5.0000000000000000e-01, 5.0000000000000000e-01,
             5.0000000000000000e-01, 5.0000000000000000e-01,
             5.0000000000000000e-01, 5.0000000000000000e-01,
             5.0000000000000000e-01, 5.0000000000000000e-01,
             5.0000000000000000e-01, 5.0000000000000000e-01,
             5.0000000000000000e-01, 5.0000000000000000e-01,
             5.0000000000000000e-01, 5.0000000000000000e-01,
             5.0000000000000000e-01, 5.0000000000000000e-01,
             5.0000000000000000e-01, 5.0000000000000000e-01,
             5.0000000000000000e-01, 5.0000000000000000e-01,
             5.0000000000000000e-01, 5.0000000000000000e-01,
             5.0000000000000000e-01, 5.0000000000000000e-01,
             5.0000000000000000e-01, 5.0000000000000000e-01,
             5.0000000000000000e-01, 5.0000000000000000e-01,
             5.0000000000000000e-01, 5.0000000000000000e-01,
             5.0000000000000000e-01, 5.0000000000000000e-01,
             5.0000000000000000e-01, 5.0000000000000000e-01,
             5.0000000000000000e-01, 5.0000000000000000e-01,
             5.0000000000000000e-01, 5.0000000000000000e-01,
             5.0000000000000000e-01, 5.0000000000000000e-01,
             5.0000000000000000e-01, 5.0000000000000000e-01,
             5.0000000000000000e-01, 5.0000000000000000e-01,
             5.0000000000000000e-01, 5.0000000000000000e-01,
             5.0000000000000000e-01, 5.0000000000000000e-01,
             5.0000000000000000e-01, 5.0000000000000000e-01,
             5.0000000000000000e-01, 5.0000000000000000e-01,
             5.0000000000000000e-01, 5.0000000000000000e-01,
             5.0000000000000000e-01, 5.0000000000000000e-01,
             5.0000000000000000e-01, 5.0000000000000000e-01,
             5.0000000000000000e-01, 5.0000000000000000e-01,
             5.0000000000000000e-01, 5.0000000000000000e-01,
             5.0000000000000000e-01, 5.0000000000000000e-01,
             5.0000000000000000e-01, 5.0000000000000000e-01,
             5.0000000000000000e-01, 5.0000000000000000e-01,
             5.0000000000000000e-01, 5.0000000000000000e-01,
             5.0000000000000000e-01, 5.0000000000000000e-01,
             5.0000000000000000e-01, 5.0000000000000000e-01,
             5.0000000000000000e-01, 5.0000000000000000e-01,
             5.0000000000000000e-01, 5.0000000000000000e-01,
             5.0000000000000000e-01, 5.0000000000000000e-01,
             5.0000000000000000e-01, 5.0000000000000000e-01,
             5.0000000000000000e-01, 5.0000000000000000e-01,
             5.0000000000000000e-01, 5.0000000000000000e-01,
             5.0000000000000000e-01, 5.0000000000000000e-01,
             5.0000000000000000e-01, 5.0000000000000000e-01,
             5.0000000000000000e-01, 5.0000000000000000e-01,
             5.0000000000000000e-01, 5.0000000000000000e-01,
             5.0000000000000000e-01, 5.0000000000000000e-01,
             5.0000000000000000e-01, 5.0000000000000000e-01,
             5.0000000000000000e-01, 5.0000000000000000e-01,
             5.0000000000000000e-01, 5.0000000000000000e-01,
             5.0000000000000000e-01, 5.0000000000000000e-01,
             5.0000000000000000e-01, 5.0000000000000000e-01,
             5.0000000000000000e-01, 5.0000000000000000e-01,
             5.0000000000000000e-01, 5.0000000000000000e-01,
             5.0000000000000000e-01, 5.0000000000000000e-01,
             5.0000000000000000e-01, 5.0000000000000000e-01,
             5.0000000000000000e-01, 5.0000000000000000e-01,
             5.0000000000000000e-01, 5.0000000000000000e-01,
             5.0000000000000000e-01, 5.0000000000000000e-01,
             5.0000000000000000e-01, 5.0000000000000000e-01,
             5.0000000000000000e-01, 5.0000000000000000e-01,
             5.0000000000000000e-01, 5.0000000000000000e-01,
             5.0000000000000000e-01, 5.0000000000000000e-01,
             5.0000000000000000e-01, 5.0000000000000000e-01,
             5.0000000000000000e-01, 5.0000000000000000e-01,
             5.0000000000000000e-01, 5.0000000000000000e-01,
             5.0000000000000000e-01, 5.0000000000000000e-01,
             5.0000000000000000e-01, 5.0000000000000000e-01,
             5.0000000000000000e-01, 5.0000000000000000e-01,
             5.0000000000000000e-01, 5.0000000000000000e-01,
             5.0000000000000000e-01, 5.0000000000000000e-01,
             5.0000000000000000e-01, 5.0000000000000000e-01,
             5.0000000000000000e-01, 5.0000000000000000e-01,
             5.0000000000000000e-01, 5.0000000000000000e-01,
             5.0000000000000000e-01, 5.0000000000000000e-01,
             5.0000000000000000e-01, 5.0000000000000000e-01,
             5.0000000000000000e-01, 5.0000000000000000e-01,
             5.0000000000000000e-01, 5.0000000000000000e-01,
             5.0000000000000000e-01, 5.0000000000000000e-01,
             5.0000000000000000e-01, 5.0000000000000000e-01,
             5.0000000000000000e-01, 5.0000000000000000e-01,
             5.0000000000000000e-01, 5.0000000000000000e-01,
             5.0000000000000000e-01, 5.0000000000000000e-01,
             5.0000000000000000e-01, 5.0000000000000000e-01,
             5.0000000000000000e-01, 5.0000000000000000e-01,
             5.0000000000000000e-01, 5.0000000000000000e-01,
             5.0000000000000000e-01, 5.0000000000000000e-01,
             5.0000000000000000e-01, 5.0000000000000000e-01,
             5.0000000000000000e-01, 5.0000000000000000e-01,
             5.0000000000000000e-01, 5.0000000000000000e-01,
             5.0000000000000000e-01, 5.0000000000000000e-01,
             5.0000000000000000e-01, 5.0000000000000000e-01,
             5.0000000000000000e-01, 5.0000000000000000e-01,
             5.0000000000000000e-01, 5.0000000000000000e-01,
             5.0000000000000000e-01, 5.0000000000000000e-01,
             5.0000000000000000e-01, 5.0000000000000000e-01,
             5.0000000000000000e-01, 5.0000000000000000e-01,
             5.0000000000000000e-01, 5.0000000000000000e-01,
             5.0000000000000000e-01, 5.0000000000000000e-01,
             5.0000000000000000e-01, 5.0000000000000000e-01,
             5.0000000000000000e-01, 5.0000000000000000e-01,
             5.0000000000000000e-01, 5.0000000000000000e-01,
             5.0000000000000000e-01, 5.0000000000000000e-01,
             5.0000000000000000e-01, 5.0000000000000000e-01,
             5.0000000000000000e-01, 5.0000000000000000e-01,
             5.0000000000000000e-01, 5.0000000000000000e-01,
             5.0000000000000000e-01, 5.0000000000000000e-01,
             5.0000000000000000e-01, 5.0000000000000000e-01,
             5.0000000000000000e-01, 5.0000000000000000e-01,
             5.0000000000000000e-01, 5.0000000000000000e-01,
             5.0000000000000000e-01, 5.0000000000000000e-01,
             5.0000000000000000e-01, 5.0000000000000000e-01,
             5.0000000000000000e-01, 5.0000000000000000e-01,
             5.0000000000000000e-01, 5.0000000000000000e-01,
             5.0000000000000000e-01, 5.0000000000000000e-01,
             5.0000000000000000e-01, 5.0000000000000000e-01,
             5.0000000000000000e-01, 5.0000000000000000e-01,
             5.0000000000000000e-01, 5.0000000000000000e-01,
             5.0000000000000000e-01, 5.0000000000000000e-01,
             5.0000000000000000e-01, 5.0000000000000000e-01,
             5.0000000000000000e-01, 5.0000000000000000e-01,
             5.0000000000000000e-01, 5.0000000000000000e-01,
             5.0000000000000000e-01, 5.0000000000000000e-01,
             5.0000000000000000e-01, 5.0000000000000000e-01,
             5.0000000000000000e-01, 5.0000000000000000e-01,
             5.0000000000000000e-01, 5.0000000000000000e-01,
             5.0000000000000000e-01, 5.0000000000000000e-01,
             5.0000000000000000e-01, 5.0000000000000000e-01,
             5.0000000000000000e-01, 5.0000000000000000e-01,
             5.0000000000000000e-01, 5.0000000000000000e-01,
             5.0000000000000000e-01, 5.0000000000000000e-01,
             5.0000000000000000e-01, 5.0000000000000000e-01,
             5.0000000000000000e-01, 5.0000000000000000e-01,
             5.0000000000000000e-01, 5.0000000000000000e-01,
             5.0000000000000000e-01, 5.0000000000000000e-01,
             5.0000000000000000e-01, 5.0000000000000000e-01,
             5.0000000000000000e-01, 5.0000000000000000e-01,
             5.0000000000000000e-01, 5.0000000000000000e-01,
             5.0000000000000000e-01, 5.0000000000000000e-01,
             5.0000000000000000e-01, 5.0000000000000000e-01,
             5.0000000000000000e-01, 5.0000000000000000e-01,
             5.0000000000000000e-01, 5.0000000000000000e-01,
             5.0000000000000000e-01, 5.0000000000000000e-01,
             5.0000000000000000e-01, 5.0000000000000000e-01,
             5.0000000000000000e-01, 5.0000000000000000e-01,
             5.0000000000000000e-01, 5.0000000000000000e-01,
             5.0000000000000000e-01, 5.0000000000000000e-01,
             5.0000000000000000e-01, 5.0000000000000000e-01,
             5.0000000000000000e-01, 5.0000000000000000e-01,
             5.0000000000000000e-01, 5.0000000000000000e-01,
             5.0000000000000000e-01, 5.0000000000000000e-01,
             5.0000000000000000e-01, 5.0000000000000000e-01,
             5.0000000000000000e-01, 5.0000000000000000e-01,
             5.0000000000000000e-01, 5.0000000000000000e-01,
             5.0000000000000000e-01, 5.0000000000000000e-01,
             5.0000000000000000e-01, 5.0000000000000000e-01,
             5.0000000000000000e-01, 5.0000000000000000e-01,
             5.0000000000000000e-01, 5.0000000000000000e-01,
             5.0000000000000000e-01, 5.0000000000000000e-01,
             5.0000000000000000e-01, 5.0000000000000000e-01,
             5.0000000000000000e-01, 5.0000000000000000e-01,
             5.0000000000000000e-01, 5.0000000000000000e-01,
             5.0000000000000000e-01, 5.0000000000000000e-01,
             5.0000000000000000e-01, 5.0000000000000000e-01,
             5.0000000000000000e-01, 5.0000000000000000e-01,
             5.0000000000000000e-01, 5.0000000000000000e-01,
             5.0000000000000000e-01, 5.0000000000000000e-01,
             5.0000000000000000e-01, 5.0000000000000000e-01,
             5.0000000000000000e-01, 5.0000000000000000e-01,
             5.0000000000000000e-01, 5.0000000000000000e-01,
             5.0000000000000000e-01, 5.0000000000000000e-01,
             5.0000000000000000e-01, 5.0000000000000000e-01,
             5.0000000000000000e-01, 5.0000000000000000e-01,
             5.0000000000000000e-01, 5.0000000000000000e-01,
             5.0000000000000000e-01, 5.0000000000000000e-01,
             5.0000000000000000e-01, 5.0000000000000000e-01,
             5.0000000000000000e-01, 5.0000000000000000e-01,
             5.0000000000000000e-01, 5.0000000000000000e-01,
             5.0000000000000000e-01, 5.0000000000000000e-01,
             5.0000000000000000e-01, 5.0000000000000000e-01,
             5.0000000000000000e-01, 5.0000000000000000e-01,
             5.0000000000000000e-01, 5.0000000000000000e-01,
             5.0000000000000000e-01, 5.0000000000000000e-01,
             5.0000000000000000e-01, 5.0000000000000000e-01,
             5.0000000000000000e-01, 5.0000000000000000e-01,
             5.0000000000000000e-01, 5.0000000000000000e-01,
             5.0000000000000000e-01, 5.0000000000000000e-01,
             5.0000000000000000e-01, 5.0000000000000000e-01,
             5.0000000000000000e-01, 5.0000000000000000e-01,
             5.0000000000000000e-01, 5.0000000000000000e-01,
             5.0000000000000000e-01, 5.0000000000000000e-01,
             5.0000000000000000e-01, 5.0000000000000000e-01,
             5.0000000000000000e-01, 5.0000000000000000e-01,
             5.0000000000000000e-01, 5.0000000000000000e-01,
             5.0000000000000000e-01, 5.0000000000000000e-01,
             5.0000000000000000e-01, 5.0000000000000000e-01,
             5.0000000000000000e-01, 5.0000000000000000e-01,
             5.0000000000000000e-01, 5.0000000000000000e-01,
             5.0000000000000000e-01, 5.0000000000000000e-01,
             5.0000000000000000e-01, 5.0000000000000000e-01,
             5.0000000000000000e-01, 5.0000000000000000e-01,
             5.0000000000000000e-01, 5.0000000000000000e-01,
             5.0000000000000000e-01, 5.0000000000000000e-01,
             5.0000000000000000e-01, 5.0000000000000000e-01,
             5.0000000000000000e-01, 5.0000000000000000e-01,
             5.0000000000000000e-01, 5.0000000000000000e-01,
             5.0000000000000000e-01, 5.0000000000000000e-01,
             5.0000000000000000e-01, 5.0000000000000000e-01,
             5.0000000000000000e-01, 5.0000000000000000e-01,
             5.0000000000000000e-01, 5.0000000000000000e-01,
             5.0000000000000000e-01, 5.0000000000000000e-01,
             5.0000000000000000e-01, 5.0000000000000000e-01,
             5.0000000000000000e-01, 5.0000000000000000e-01,
             5.0000000000000000e-01, 5.0000000000000000e-01,
             5.0000000000000000e-01, 5.0000000000000000e-01,
             5.0000000000000000e-01, 5.0000000000000000e-01,
             5.0000000000000000e-01, 5.0000000000000000e-01,
             5.0000000000000000e-01, 5.0000000000000000e-01,
             5.0000000000000000e-01, 5.0000000000000000e-01,
             5.0000000000000000e-01, 5.0000000000000000e-01,
             5.0000000000000000e-01, 5.0000000000000000e-01,
             5.0000000000000000e-01, 5.0000000000000000e-01,
             5.0000000000000000e-01, 5.0000000000000000e-01,
             5.0000000000000000e-01, 5.0000000000000000e-01,
             5.0000000000000000e-01, 5.0000000000000000e-01,
             5.0000000000000000e-01, 5.0000000000000000e-01,
             5.0000000000000000e-01, 5.0000000000000000e-01,
             5.0000000000000000e-01, 5.0000000000000000e-01,
             5.0000000000000000e-01, 5.0000000000000000e-01,
             5.0000000000000000e-01, 5.0000000000000000e-01,
             5.0000000000000000e-01, 5.0000000000000000e-01,
             5.0000000000000000e-01, 5.0000000000000000e-01,
             5.0000000000000000e-01, 5.0000000000000000e-01,
             5.0000000000000000e-01, 5.0000000000000000e-01,
             5.0000000000000000e-01, 5.0000000000000000e-01,
             5.0000000000000000e-01, 5.0000000000000000e-01,
             5.0000000000000000e-01, 5.0000000000000000e-01,
             5.0000000000000000e-01, 5.0000000000000000e-01,
             5.0000000000000000e-01, 5.0000000000000000e-01,
             5.0000000000000000e-01, 5.0000000000000000e-01,
             5.0000000000000000e-01, 5.0000000000000000e-01,
             5.0000000000000000e-01, 5.0000000000000000e-01,
             5.0000000000000000e-01, 5.0000000000000000e-01,
             5.0000000000000000e-01, 5.0000000000000000e-01,
             5.0000000000000000e-01, 5.0000000000000000e-01,
             5.0000000000000000e-01, 5.0000000000000000e-01,
             5.0000000000000000e-01, 5.0000000000000000e-01,
             5.0000000000000000e-01, 5.0000000000000000e-01,
             5.0000000000000000e-01, 5.0000000000000000e-01,
             5.0000000000000000e-01, 5.0000000000000000e-01,
             5.0000000000000000e-01, 5.0000000000000000e-01,
             5.0000000000000000e-01, 5.0000000000000000e-01,
             5.0000000000000000e-01, 5.0000000000000000e-01,
             5.0000000000000000e-01, 5.0000000000000000e-01,
             5.0000000000000000e-01, 5.0000000000000000e-01,
             5.0000000000000000e-01, 5.0000000000000000e-01,
             5.0000000000000000e-01, 5.0000000000000000e-01,
             5.0000000000000000e-01, 5.0000000000000000e-01,
             5.0000000000000000e-01, 5.0000000000000000e-01,
             5.0000000000000000e-01, 5.0000000000000000e-01,
             5.0000000000000000e-01, 5.0000000000000000e-01,
             5.0000000000000000e-01, 5.0000000000000000e-01,
             5.0000000000000000e-01, 5.0000000000000000e-01,
             5.0000000000000000e-01, 5.0000000000000000e-01,
             5.0000000000000000e-01, 5.0000000000000000e-01,
             5.0000000000000000e-01, 5.0000000000000000e-01,
             5.0000000000000000e-01, 5.0000000000000000e-01,
             5.0000000000000000e-01, 5.0000000000000000e-01,
             5.0000000000000000e-01, 5.0000000000000000e-01,
             5.0000000000000000e-01, 5.0000000000000000e-01,
             5.0000000000000000e-01, 5.0000000000000000e-01,
             5.0000000000000000e-01, 5.0000000000000000e-01,
             5.0000000000000000e-01, 5.0000000000000000e-01,
             5.0000000000000000e-01, 5.0000000000000000e-01,
             5.0000000000000000e-01, 5.0000000000000000e-01,
             5.0000000000000000e-01, 5.0000000000000000e-01,
             5.0000000000000000e-01, 5.0000000000000000e-01,
             5.0000000000000000e-01, 5.0000000000000000e-01,
             5.0000000000000000e-01, 5.0000000000000000e-01,
             5.0000000000000000e-01, 5.0000000000000000e-01,
             5.0000000000000000e-01, 5.0000000000000000e-01,
             5.0000000000000000e-01, 5.0000000000000000e-01,
             5.0000000000000000e-01, 5.0000000000000000e-01,
             5.0000000000000000e-01, 5.0000000000000000e-01,
             5.0000000000000000e-01, 5.0000000000000000e-01,
             5.0000000000000000e-01, 5.0000000000000000e-01,
             5.0000000000000000e-01, 5.0000000000000000e-01,
             5.0000000000000000e-01, 5.0000000000000000e-01,
             5.0000000000000000e-01, 5.0000000000000000e-01,
             5.0000000000000000e-01, 5.0000000000000000e-01,
             5.0000000000000000e-01, 5.0000000000000000e-01,
             5.0000000000000000e-01, 5.0000000000000000e-01,
             5.0000000000000000e-01, 5.0000000000000000e-01,
             5.0000000000000000e-01, 5.0000000000000000e-01,
             5.0000000000000000e-01, 5.0000000000000000e-01,
             5.0000000000000000e-01, 5.0000000000000000e-01,
             5.0000000000000000e-01, 5.0000000000000000e-01,
             5.0000000000000000e-01, 5.0000000000000000e-01,
             5.0000000000000000e-01, 5.0000000000000000e-01,
             5.0000000000000000e-01, 5.0000000000000000e-01,
             5.0000000000000000e-01, 5.0000000000000000e-01,
             5.0000000000000000e-01, 5.0000000000000000e-01,
             5.0000000000000000e-01, 5.0000000000000000e-01,
             5.0000000000000000e-01, 5.0000000000000000e-01,
             5.0000000000000000e-01, 5.0000000000000000e-01,
             5.0000000000000000e-01, 5.0000000000000000e-01,
             5.0000000000000000e-01, 5.0000000000000000e-01,
             5.0000000000000000e-01, 5.0000000000000000e-01,
             5.0000000000000000e-01, 5.0000000000000000e-01,
             5.0000000000000000e-01, 5.0000000000000000e-01,
             5.0000000000000000e-01, 5.0000000000000000e-01,
             5.0000000000000000e-01, 5.0000000000000000e-01,
             5.0000000000000000e-01, 5.0000000000000000e-01,
             5.0000000000000000e-01, 5.0000000000000000e-01,
             5.0000000000000000e-01, 5.0000000000000000e-01,
             5.0000000000000000e-01, 5.0000000000000000e-01,
             5.0000000000000000e-01, 5.0000000000000000e-01,
             5.0000000000000000e-01, 5.0000000000000000e-01,
             5.0000000000000000e-01, 5.0000000000000000e-01,
             5.0000000000000000e-01, 5.0000000000000000e-01,
             5.0000000000000000e-01, 5.0000000000000000e-01,
             5.0000000000000000e-01, 5.0000000000000000e-01,
             5.0000000000000000e-01, 5.0000000000000000e-01,
             5.0000000000000000e-01, 5.0000000000000000e-01,
             5.0000000000000000e-01, 5.0000000000000000e-01,
             5.0000000000000000e-01, 5.0000000000000000e-01,
             5.0000000000000000e-01, 5.0000000000000000e-01,
             5.0000000000000000e-01, 5.0000000000000000e-01,
             5.0000000000000000e-01, 5.0000000000000000e-01,
             5.0000000000000000e-01, 5.0000000000000000e-01,
             5.0000000000000000e-01, 5.0000000000000000e-01,
             5.0000000000000000e-01, 5.0000000000000000e-01,
             5.0000000000000000e-01, 5.0000000000000000e-01,
             5.0000000000000000e-01, 5.0000000000000000e-01,
             5.0000000000000000e-01, 5.0000000000000000e-01,
             5.0000000000000000e-01, 5.0000000000000000e-01,
             5.0000000000000000e-01, 5.0000000000000000e-01,
             5.0000000000000000e-01, 5.0000000000000000e-01,
             5.0000000000000000e-01, 5.0000000000000000e-01,
             5.0000000000000000e-01, 5.0000000000000000e-01,
             5.0000000000000000e-01, 5.0000000000000000e-01,
             5.0000000000000000e-01, 5.0000000000000000e-01,
             5.0000000000000000e-01, 5.0000000000000000e-01,
             5.0000000000000000e-01, 5.0000000000000000e-01,
             5.0000000000000000e-01, 5.0000000000000000e-01,
             5.0000000000000000e-01, 5.0000000000000000e-01,
             5.0000000000000000e-01, 5.0000000000000000e-01,
             5.0000000000000000e-01, 5.0000000000000000e-01,
             5.0000000000000000e-01, 5.0000000000000000e-01,
             5.0000000000000000e-01, 5.0000000000000000e-01,
             5.0000000000000000e-01, 5.0000000000000000e-01,
             5.0000000000000000e-01, 5.0000000000000000e-01,
             5.0000000000000000e-01, 5.0000000000000000e-01,
             5.0000000000000000e-01, 5.0000000000000000e-01,
             5.0000000000000000e-01, 5.0000000000000000e-01,
             5.0000000000000000e-01, 5.0000000000000000e-01,
             5.0000000000000000e-01, 5.0000000000000000e-01,
             5.0000000000000000e-01, 5.0000000000000000e-01,
             5.0000000000000000e-01, 5.0000000000000000e-01,
             5.0000000000000000e-01, 5.0000000000000000e-01,
             5.0000000000000000e-01, 5.0000000000000000e-01,
             5.0000000000000000e-01, 5.0000000000000000e-01,
             5.0000000000000000e-01, 5.0000000000000000e-01,
             5.0000000000000000e-01, 5.0000000000000000e-01,
             5.0000000000000000e-01, 5.0000000000000000e-01,
             5.0000000000000000e-01, 5.0000000000000000e-01,
             5.0000000000000000e-01, 5.0000000000000000e-01,
             5.0000000000000000e-01, 5.0000000000000000e-01,
             5.0000000000000000e-01, 5.0000000000000000e-01,
             5.0000000000000000e-01, 5.0000000000000000e-01,
             5.0000000000000000e-01, 5.0000000000000000e-01,
             5.0000000000000000e-01, 5.0000000000000000e-01,
             5.0000000000000000e-01, 5.0000000000000000e-01,
             5.0000000000000000e-01, 5.0000000000000000e-01,
             5.0000000000000000e-01, 5.0000000000000000e-01,
             5.0000000000000000e-01, 5.0000000000000000e-01,
             5.0000000000000000e-01, 5.0000000000000000e-01,
             5.0000000000000000e-01, 5.0000000000000000e-01,
             5.0000000000000000e-01, 5.0000000000000000e-01,
             5.0000000000000000e-01, 5.0000000000000000e-01,
             5.0000000000000000e-01, 5.0000000000000000e-01,
             5.0000000000000000e-01, 5.0000000000000000e-01,
             5.0000000000000000e-01, 5.0000000000000000e-01,
             5.0000000000000000e-01, 5.0000000000000000e-01,
             5.0000000000000000e-01, 5.0000000000000000e-01,
             5.0000000000000000e-01, 5.0000000000000000e-01,
             5.0000000000000000e-01, 5.0000000000000000e-01,
             5.0000000000000000e-01, 5.0000000000000000e-01,
             5.0000000000000000e-01, 5.0000000000000000e-01,
             5.0000000000000000e-01, 5.0000000000000000e-01,
             5.0000000000000000e-01, 5.0000000000000000e-01,
             5.0000000000000000e-01, 5.0000000000000000e-01,
             5.0000000000000000e-01, 5.0000000000000000e-01,
             5.0000000000000000e-01, 5.0000000000000000e-01,
             5.0000000000000000e-01, 5.0000000000000000e-01,
             5.0000000000000000e-01, 5.0000000000000000e-01,
             5.0000000000000000e-01, 5.0000000000000000e-01,
             5.0000000000000000e-01, 5.0000000000000000e-01,
             5.0000000000000000e-01, 5.0000000000000000e-01,
             5.0000000000000000e-01, 5.0000000000000000e-01,
             5.0000000000000000e-01, 5.0000000000000000e-01,
             5.0000000000000000e-01, 5.0000000000000000e-01,
             5.0000000000000000e-01, 5.0000000000000000e-01,
             5.0000000000000000e-01, 5.0000000000000000e-01,
             5.0000000000000000e-01, 5.0000000000000000e-01,
             5.0000000000000000e-01, 5.0000000000000000e-01,
             5.0000000000000000e-01, 5.0000000000000000e-01,
             5.0000000000000000e-01, 5.0000000000000000e-01,
             5.0000000000000000e-01, 5.0000000000000000e-01,
             5.0000000000000000e-01, 5.0000000000000000e-01,
             5.0000000000000000e-01, 5.0000000000000000e-01,
             5.0000000000000000e-01, 5.0000000000000000e-01,
             5.0000000000000000e-01, 5.0000000000000000e-01,
             5.0000000000000000e-01, 5.0000000000000000e-01,
             5.0000000000000000e-01, 5.0000000000000000e-01,
             5.0000000000000000e-01, 5.0000000000000000e-01,
             5.0000000000000000e-01, 5.0000000000000000e-01,
             5.0000000000000000e-01, 5.0000000000000000e-01,
             5.0000000000000000e-01, 5.0000000000000000e-01,
             5.0000000000000000e-01, 5.0000000000000000e-01,
             5.0000000000000000e-01, 5.0000000000000000e-01,
             5.0000000000000000e-01, 5.0000000000000000e-01,
             5.0000000000000000e-01, 5.0000000000000000e-01,
             5.0000000000000000e-01, 5.0000000000000000e-01,
             5.0000000000000000e-01, 5.0000000000000000e-01,
             5.0000000000000000e-01, 5.0000000000000000e-01,
             5.0000000000000000e-01, 5.0000000000000000e-01,
             5.0000000000000000e-01, 5.0000000000000000e-01,
             5.0000000000000000e-01, 5.0000000000000000e-01,
             5.0000000000000000e-01, 5.0000000000000000e-01,
             5.0000000000000000e-01, 5.0000000000000000e-01,
             5.0000000000000000e-01, 5.0000000000000000e-01,
             5.0000000000000000e-01, 5.0000000000000000e-01,
             5.0000000000000000e-01, 5.0000000000000000e-01,
             5.0000000000000000e-01, 5.0000000000000000e-01,
             5.0000000000000000e-01, 5.0000000000000000e-01,
             5.0000000000000000e-01, 5.0000000000000000e-01,
             5.0000000000000000e-01, 5.0000000000000000e-01,
             5.0000000000000000e-01, 5.0000000000000000e-01,
             5.0000000000000000e-01, 5.0000000000000000e-01,
             5.0000000000000000e-01, 5.0000000000000000e-01,
             5.0000000000000000e-01, 5.0000000000000000e-01,
             5.0000000000000000e-01, 5.0000000000000000e-01,
             5.0000000000000000e-01, 5.0000000000000000e-01,
             5.0000000000000000e-01, 5.0000000000000000e-01,
             5.0000000000000000e-01, 5.0000000000000000e-01,
             5.0000000000000000e-01, 5.0000000000000000e-01,
             5.0000000000000000e-01, 5.0000000000000000e-01,
             5.0000000000000000e-01, 5.0000000000000000e-01,
             5.0000000000000000e-01, 5.0000000000000000e-01,
             5.0000000000000000e-01, 5.0000000000000000e-01,
             5.0000000000000000e-01, 5.0000000000000000e-01,
             5.0000000000000000e-01, 5.0000000000000000e-01,
             5.0000000000000000e-01, 5.0000000000000000e-01,
             5.0000000000000000e-01, 5.0000000000000000e-01,
             5.0000000000000000e-01, 5.0000000000000000e-01,
             5.0000000000000000e-01, 5.0000000000000000e-01,
             5.0000000000000000e-01, 5.0000000000000000e-01,
             5.0000000000000000e-01, 5.0000000000000000e-01,
             5.0000000000000000e-01, 5.0000000000000000e-01,
             5.0000000000000000e-01, 5.0000000000000000e-01,
             5.0000000000000000e-01, 5.0000000000000000e-01,
             5.0000000000000000e-01, 5.0000000000000000e-01,
             5.0000000000000000e-01, 5.0000000000000000e-01,
             5.0000000000000000e-01, 5.0000000000000000e-01,
             5.0000000000000000e-01, 5.0000000000000000e-01,
             5.0000000000000000e-01, 5.0000000000000000e-01,
             5.0000000000000000e-01, 5.0000000000000000e-01,
             5.0000000000000000e-01, 5.0000000000000000e-01,
             5.0000000000000000e-01, 5.0000000000000000e-01,
             5.0000000000000000e-01, 5.0000000000000000e-01,
             5.0000000000000000e-01, 5.0000000000000000e-01,
             5.0000000000000000e-01, 5.0000000000000000e-01,
             5.0000000000000000e-01, 5.0000000000000000e-01,
             5.0000000000000000e-01, 5.0000000000000000e-01,
             5.0000000000000000e-01, 5.0000000000000000e-01,
             5.0000000000000000e-01, 5.0000000000000000e-01,
             5.0000000000000000e-01, 5.0000000000000000e-01,
             5.0000000000000000e-01, 5.0000000000000000e-01,
             5.0000000000000000e-01, 5.0000000000000000e-01,
             5.0000000000000000e-01, 5.0000000000000000e-01,
             5.0000000000000000e-01, 5.0000000000000000e-01,
             5.0000000000000000e-01, 5.0000000000000000e-01,
             5.0000000000000000e-01, 5.0000000000000000e-01,
             5.0000000000000000e-01, 5.0000000000000000e-01,
             -5.0000000000000000e-01, -5.0000000000000000e-01,
             -5.0000000000000000e-01, -5.0000000000000000e-01,
             -5.0000000000000000e-01, -5.0000000000000000e-01,
             -5.0000000000000000e-01, -5.0000000000000000e-01,
             -5.0000000000000000e-01, -5.0000000000000000e-01,
             -5.0000000000000000e-01, -5.0000000000000000e-01,
             -5.0000000000000000e-01, -5.0000000000000000e-01,
             -5.0000000000000000e-01, -5.0000000000000000e-01,
             -5.0000000000000000e-01, -5.0000000000000000e-01,
             -5.0000000000000000e-01, -5.0000000000000000e-01,
             -5.0000000000000000e-01, -5.0000000000000000e-01,
             -5.0000000000000000e-01, -5.0000000000000000e-01,
             -5.0000000000000000e-01, -5.0000000000000000e-01,
             -5.0000000000000000e-01, -5.0000000000000000e-01,
             -5.0000000000000000e-01, -5.0000000000000000e-01,
             -5.0000000000000000e-01, -5.0000000000000000e-01,
             -5.0000000000000000e-01, -5.0000000000000000e-01,
             -5.0000000000000000e-01, -5.0000000000000000e-01,
             -5.0000000000000000e-01, -5.0000000000000000e-01,
             -5.0000000000000000e-01, -5.0000000000000000e-01,
             -5.0000000000000000e-01, -5.0000000000000000e-01,
             -5.0000000000000000e-01, -5.0000000000000000e-01,
             -5.0000000000000000e-01, -5.0000000000000000e-01,
             -5.0000000000000000e-01, -5.0000000000000000e-01,
             -5.0000000000000000e-01, -5.0000000000000000e-01,
             -5.0000000000000000e-01, -5.0000000000000000e-01,
             -5.0000000000000000e-01, -5.0000000000000000e-01,
             -5.0000000000000000e-01, -5.0000000000000000e-01,
             -5.0000000000000000e-01, -5.0000000000000000e-01,
             -5.0000000000000000e-01, -5.0000000000000000e-01,
             -5.0000000000000000e-01, -5.0000000000000000e-01,
             -5.0000000000000000e-01, -5.0000000000000000e-01,
             -5.0000000000000000e-01, -5.0000000000000000e-01,
             -5.0000000000000000e-01, -5.0000000000000000e-01,
             -5.0000000000000000e-01, -5.0000000000000000e-01,
             -5.0000000000000000e-01, -5.0000000000000000e-01,
             -5.0000000000000000e-01, -5.0000000000000000e-01,
             -5.0000000000000000e-01, -5.0000000000000000e-01,
             -5.0000000000000000e-01, -5.0000000000000000e-01,
             -5.0000000000000000e-01, -5.0000000000000000e-01,
             -5.0000000000000000e-01, -5.0000000000000000e-01,
             -5.0000000000000000e-01, -5.0000000000000000e-01,
             -5.0000000000000000e-01, -5.0000000000000000e-01,
             -5.0000000000000000e-01, -5.0000000000000000e-01,
             -5.0000000000000000e-01, -5.0000000000000000e-01,
             -5.0000000000000000e-01, -5.0000000000000000e-01,
             -5.0000000000000000e-01, -5.0000000000000000e-01,
             -5.0000000000000000e-01, -5.0000000000000000e-01,
             -5.0000000000000000e-01, -5.0000000000000000e-01,
             -5.0000000000000000e-01, -5.0000000000000000e-01,
             -5.0000000000000000e-01, -5.0000000000000000e-01,
             -5.0000000000000000e-01, -5.0000000000000000e-01,
             -5.0000000000000000e-01, -5.0000000000000000e-01,
             -5.0000000000000000e-01, -5.0000000000000000e-01,
             -5.0000000000000000e-01, -5.0000000000000000e-01,
             -5.0000000000000000e-01, -5.0000000000000000e-01,
             -5.0000000000000000e-01, -5.0000000000000000e-01,
             -5.0000000000000000e-01, -5.0000000000000000e-01,
             -5.0000000000000000e-01, -5.0000000000000000e-01,
             -5.0000000000000000e-01, -5.0000000000000000e-01,
             -5.0000000000000000e-01, -5.0000000000000000e-01,
             -5.0000000000000000e-01, -5.0000000000000000e-01,
             -5.0000000000000000e-01, -5.0000000000000000e-01,
             -5.0000000000000000e-01, -5.0000000000000000e-01,
             -5.0000000000000000e-01, -5.0000000000000000e-01,
             -5.0000000000000000e-01, -5.0000000000000000e-01,
             -5.0000000000000000e-01, -5.0000000000000000e-01,
             -5.0000000000000000e-01, -5.0000000000000000e-01,
             -5.0000000000000000e-01, -5.0000000000000000e-01,
             -5.0000000000000000e-01, -5.0000000000000000e-01,
             -5.0000000000000000e-01, -5.0000000000000000e-01,
             -5.0000000000000000e-01, -5.0000000000000000e-01,
             -5.0000000000000000e-01, -5.0000000000000000e-01,
             -5.0000000000000000e-01, -5.0000000000000000e-01,
             -5.0000000000000000e-01, -5.0000000000000000e-01,
             -5.0000000000000000e-01, -5.0000000000000000e-01,
             -5.0000000000000000e-01, -5.0000000000000000e-01,
             -5.0000000000000000e-01, -5.0000000000000000e-01,
             -5.0000000000000000e-01, -5.0000000000000000e-01,
             -5.0000000000000000e-01, -5.0000000000000000e-01,
             -5.0000000000000000e-01, -5.0000000000000000e-01,
             -5.0000000000000000e-01, -5.0000000000000000e-01,
             -5.0000000000000000e-01, -5.0000000000000000e-01,
             -5.0000000000000000e-01, -5.0000000000000000e-01,
             -5.0000000000000000e-01, -5.0000000000000000e-01,
             -5.0000000000000000e-01, -5.0000000000000000e-01,
             -5.0000000000000000e-01, -5.0000000000000000e-01,
             -5.0000000000000000e-01, -5.0000000000000000e-01,
             -5.0000000000000000e-01, -5.0000000000000000e-01,
             -5.0000000000000000e-01, -5.0000000000000000e-01,
             -5.0000000000000000e-01, -5.0000000000000000e-01,
             -5.0000000000000000e-01, -5.0000000000000000e-01,
             -5.0000000000000000e-01, -5.0000000000000000e-01,
             -5.0000000000000000e-01, -5.0000000000000000e-01,
             -5.0000000000000000e-01, -5.0000000000000000e-01,
             -5.0000000000000000e-01, -5.0000000000000000e-01,
             -5.0000000000000000e-01, -5.0000000000000000e-01,
             -5.0000000000000000e-01, -5.0000000000000000e-01,
             -5.0000000000000000e-01, -5.0000000000000000e-01,
             -5.0000000000000000e-01, -5.0000000000000000e-01,
             -5.0000000000000000e-01, -5.0000000000000000e-01,
             -5.0000000000000000e-01, -5.0000000000000000e-01,
             -5.0000000000000000e-01, -5.0000000000000000e-01,
             -5.0000000000000000e-01, -5.0000000000000000e-01,
             -5.0000000000000000e-01, -5.0000000000000000e-01,
             -5.0000000000000000e-01, -5.0000000000000000e-01,
             -5.0000000000000000e-01, -5.0000000000000000e-01,
             -5.0000000000000000e-01, -5.0000000000000000e-01,
             -5.0000000000000000e-01, -5.0000000000000000e-01,
             -5.0000000000000000e-01, -5.0000000000000000e-01,
             -5.0000000000000000e-01, -5.0000000000000000e-01,
             -5.0000000000000000e-01, -5.0000000000000000e-01,
             -5.0000000000000000e-01, -5.0000000000000000e-01,
             -5.0000000000000000e-01, -5.0000000000000000e-01,
             -5.0000000000000000e-01, -5.0000000000000000e-01,
             -5.0000000000000000e-01, -5.0000000000000000e-01,
             -5.0000000000000000e-01, -5.0000000000000000e-01,
             -5.0000000000000000e-01, -5.0000000000000000e-01,
             -5.0000000000000000e-01, -5.0000000000000000e-01,
             -5.0000000000000000e-01, -5.0000000000000000e-01,
             -5.0000000000000000e-01, -5.0000000000000000e-01,
             -5.0000000000000000e-01, -5.0000000000000000e-01,
             -5.0000000000000000e-01, -5.0000000000000000e-01,
             -5.0000000000000000e-01, -5.0000000000000000e-01,
             -5.0000000000000000e-01, -5.0000000000000000e-01,
             -5.0000000000000000e-01, -5.0000000000000000e-01,
             -5.0000000000000000e-01, -5.0000000000000000e-01,
             -5.0000000000000000e-01, -5.0000000000000000e-01,
             -5.0000000000000000e-01, -5.0000000000000000e-01,
             -5.0000000000000000e-01, -5.0000000000000000e-01,
             -5.0000000000000000e-01, -5.0000000000000000e-01,
             -5.0000000000000000e-01, -5.0000000000000000e-01,
             -5.0000000000000000e-01, -5.0000000000000000e-01,
             -5.0000000000000000e-01, -5.0000000000000000e-01,
             -5.0000000000000000e-01, -5.0000000000000000e-01,
             -5.0000000000000000e-01, -5.0000000000000000e-01,
             -5.0000000000000000e-01, -5.0000000000000000e-01,
             -5.0000000000000000e-01, -5.0000000000000000e-01,
             -5.0000000000000000e-01, -5.0000000000000000e-01,
             -5.0000000000000000e-01, -5.0000000000000000e-01,
             -5.0000000000000000e-01, -5.0000000000000000e-01,
             -5.0000000000000000e-01, -5.0000000000000000e-01,
             -5.0000000000000000e-01, -5.0000000000000000e-01,
             -5.0000000000000000e-01, -5.0000000000000000e-01,
             -5.0000000000000000e-01, -5.0000000000000000e-01,
             -5.0000000000000000e-01, -5.0000000000000000e-01,
             -5.0000000000000000e-01, -5.0000000000000000e-01,
             -5.0000000000000000e-01, -5.0000000000000000e-01,
             -5.0000000000000000e-01, -5.0000000000000000e-01,
             -5.0000000000000000e-01, -5.0000000000000000e-01,
             -5.0000000000000000e-01, -5.0000000000000000e-01,
             -5.0000000000000000e-01, -5.0000000000000000e-01,
             -5.0000000000000000e-01, -5.0000000000000000e-01,
             -5.0000000000000000e-01, -5.0000000000000000e-01,
             -5.0000000000000000e-01, -5.0000000000000000e-01,
             -5.0000000000000000e-01, -5.0000000000000000e-01,
             -5.0000000000000000e-01, -5.0000000000000000e-01,
             -5.0000000000000000e-01, -5.0000000000000000e-01,
             -5.0000000000000000e-01, -5.0000000000000000e-01,
             -5.0000000000000000e-01, -5.0000000000000000e-01,
             -5.0000000000000000e-01, -5.0000000000000000e-01,
             -5.0000000000000000e-01, -5.0000000000000000e-01,
             -5.0000000000000000e-01, -5.0000000000000000e-01,
             -5.0000000000000000e-01, -5.0000000000000000e-01,
             -5.0000000000000000e-01, -5.0000000000000000e-01,
             -5.0000000000000000e-01, -5.0000000000000000e-01,
             -5.0000000000000000e-01, -5.0000000000000000e-01,
             -5.0000000000000000e-01, -5.0000000000000000e-01,
             -5.0000000000000000e-01, -5.0000000000000000e-01,
             -5.0000000000000000e-01, -5.0000000000000000e-01,
             -5.0000000000000000e-01, -5.0000000000000000e-01,
             -5.0000000000000000e-01, -5.0000000000000000e-01,
             -5.0000000000000000e-01, -5.0000000000000000e-01,
             -5.0000000000000000e-01, -5.0000000000000000e-01,
             -5.0000000000000000e-01, -5.0000000000000000e-01,
             -5.0000000000000000e-01, -5.0000000000000000e-01,
             -5.0000000000000000e-01, -5.0000000000000000e-01,
             -5.0000000000000000e-01, -5.0000000000000000e-01,
             -5.0000000000000000e-01, -5.0000000000000000e-01,
             -5.0000000000000000e-01, -5.0000000000000000e-01,
             -5.0000000000000000e-01, -5.0000000000000000e-01,
             -5.0000000000000000e-01, -5.0000000000000000e-01,
             -5.0000000000000000e-01, -5.0000000000000000e-01,
             -5.0000000000000000e-01, -5.0000000000000000e-01,
             -5.0000000000000000e-01, -5.0000000000000000e-01,
             -5.0000000000000000e-01, -5.0000000000000000e-01,
             -5.0000000000000000e-01, -5.0000000000000000e-01,
             -5.0000000000000000e-01, -5.0000000000000000e-01,
             -5.0000000000000000e-01, -5.0000000000000000e-01,
             -5.0000000000000000e-01, -5.0000000000000000e-01,
             -5.0000000000000000e-01, -5.0000000000000000e-01,
             -5.0000000000000000e-01, -5.0000000000000000e-01,
             -5.0000000000000000e-01, -5.0000000000000000e-01,
             -5.0000000000000000e-01, -5.0000000000000000e-01,
             -5.0000000000000000e-01, -5.0000000000000000e-01,
             -5.0000000000000000e-01, -5.0000000000000000e-01,
             -5.0000000000000000e-01, -5.0000000000000000e-01,
             -5.0000000000000000e-01, -5.0000000000000000e-01,
             -5.0000000000000000e-01, -5.0000000000000000e-01,
             -5.0000000000000000e-01, -5.0000000000000000e-01,
             -5.0000000000000000e-01, -5.0000000000000000e-01,
             -5.0000000000000000e-01, -5.0000000000000000e-01,
             -5.0000000000000000e-01, -5.0000000000000000e-01,
             -5.0000000000000000e-01, -5.0000000000000000e-01,
             -5.0000000000000000e-01, -5.0000000000000000e-01,
             -5.0000000000000000e-01, -5.0000000000000000e-01,
             -5.0000000000000000e-01, -5.0000000000000000e-01,
             -5.0000000000000000e-01, -5.0000000000000000e-01,
             -5.0000000000000000e-01, -5.0000000000000000e-01,
             -5.0000000000000000e-01, -5.0000000000000000e-01,
             -5.0000000000000000e-01, -5.0000000000000000e-01,
             -5.0000000000000000e-01, -5.0000000000000000e-01,
             -5.0000000000000000e-01, -5.0000000000000000e-01,
             -5.0000000000000000e-01, -5.0000000000000000e-01,
             -5.0000000000000000e-01, -5.0000000000000000e-01,
             -5.0000000000000000e-01, -5.0000000000000000e-01,
             -5.0000000000000000e-01, -5.0000000000000000e-01,
             -5.0000000000000000e-01, -5.0000000000000000e-01,
             -5.0000000000000000e-01, -5.0000000000000000e-01,
             -5.0000000000000000e-01, -5.0000000000000000e-01,
             -5.0000000000000000e-01, -5.0000000000000000e-01,
             -5.0000000000000000e-01, -5.0000000000000000e-01,
             -5.0000000000000000e-01, -5.0000000000000000e-01,
             -5.0000000000000000e-01, -5.0000000000000000e-01,
             -5.0000000000000000e-01, -5.0000000000000000e-01,
             -5.0000000000000000e-01, -5.0000000000000000e-01,
             -5.0000000000000000e-01, -5.0000000000000000e-01,
             -5.0000000000000000e-01, -5.0000000000000000e-01,
             -5.0000000000000000e-01, -5.0000000000000000e-01,
             -5.0000000000000000e-01, -5.0000000000000000e-01,
             -5.0000000000000000e-01, -5.0000000000000000e-01,
             -5.0000000000000000e-01, -5.0000000000000000e-01,
             -5.0000000000000000e-01, -5.0000000000000000e-01,
             -5.0000000000000000e-01, -5.0000000000000000e-01,
             -5.0000000000000000e-01, -5.0000000000000000e-01,
             -5.0000000000000000e-01, -5.0000000000000000e-01,
             -5.0000000000000000e-01, -5.0000000000000000e-01,
             -5.0000000000000000e-01, -5.0000000000000000e-01,
             -5.0000000000000000e-01, -5.0000000000000000e-01,
             -5.0000000000000000e-01, -5.0000000000000000e-01,
             -5.0000000000000000e-01, -5.0000000000000000e-01,
             -5.0000000000000000e-01, -5.0000000000000000e-01,
             -5.0000000000000000e-01, -5.0000000000000000e-01,
             -5.0000000000000000e-01, -5.0000000000000000e-01,
             -5.0000000000000000e-01, -5.0000000000000000e-01,
             -5.0000000000000000e-01, -5.0000000000000000e-01,
             -5.0000000000000000e-01, -5.0000000000000000e-01,
             -5.0000000000000000e-01, -5.0000000000000000e-01,
             -5.0000000000000000e-01, -5.0000000000000000e-01,
             -5.0000000000000000e-01, -5.0000000000000000e-01,
             -5.0000000000000000e-01, -5.0000000000000000e-01,
             -5.0000000000000000e-01, -5.0000000000000000e-01,
             -5.0000000000000000e-01, -5.0000000000000000e-01,
             -5.0000000000000000e-01, -5.0000000000000000e-01,
             -5.0000000000000000e-01, -5.0000000000000000e-01,
             -5.0000000000000000e-01, -5.0000000000000000e-01,
             -5.0000000000000000e-01, -5.0000000000000000e-01,
             -5.0000000000000000e-01, -5.0000000000000000e-01,
             -5.0000000000000000e-01, -5.0000000000000000e-01,
             -5.0000000000000000e-01, -5.0000000000000000e-01,
             -5.0000000000000000e-01, -5.0000000000000000e-01,
             -5.0000000000000000e-01, -5.0000000000000000e-01,
             -5.0000000000000000e-01, -5.0000000000000000e-01,
             -5.0000000000000000e-01, -5.0000000000000000e-01,
             -5.0000000000000000e-01, -5.0000000000000000e-01,
             -5.0000000000000000e-01, -5.0000000000000000e-01,
             -5.0000000000000000e-01, -5.0000000000000000e-01,
             -5.0000000000000000e-01, -5.0000000000000000e-01,
             -5.0000000000000000e-01, -5.0000000000000000e-01,
             -5.0000000000000000e-01, -5.0000000000000000e-01,
             -5.0000000000000000e-01, -5.0000000000000000e-01,
             -5.0000000000000000e-01, -5.0000000000000000e-01,
             -5.0000000000000000e-01, -5.0000000000000000e-01,
             -5.0000000000000000e-01, -5.0000000000000000e-01,
             -5.0000000000000000e-01, -5.0000000000000000e-01,
             -5.0000000000000000e-01, -5.0000000000000000e-01,
             -5.0000000000000000e-01, -5.0000000000000000e-01,
             -5.0000000000000000e-01, -5.0000000000000000e-01,
             -5.0000000000000000e-01, -5.0000000000000000e-01,
             -5.0000000000000000e-01, -5.0000000000000000e-01,
             -5.0000000000000000e-01, -5.0000000000000000e-01,
             -5.0000000000000000e-01, -5.0000000000000000e-01,
             -5.0000000000000000e-01, -5.0000000000000000e-01,
             -5.0000000000000000e-01, -5.0000000000000000e-01,
             -5.0000000000000000e-01, -5.0000000000000000e-01,
             -5.0000000000000000e-01, -5.0000000000000000e-01,
             -5.0000000000000000e-01, -5.0000000000000000e-01,
             -5.0000000000000000e-01, -5.0000000000000000e-01,
             -5.0000000000000000e-01, -5.0000000000000000e-01,
             -5.0000000000000000e-01, -5.0000000000000000e-01,
             -5.0000000000000000e-01, -5.0000000000000000e-01,
             -5.0000000000000000e-01, -5.0000000000000000e-01,
             -5.0000000000000000e-01, -5.0000000000000000e-01,
             -5.0000000000000000e-01, -5.0000000000000000e-01,
             -5.0000000000000000e-01, -5.0000000000000000e-01,
             -5.0000000000000000e-01, -5.0000000000000000e-01,
             -5.0000000000000000e-01, -5.0000000000000000e-01,
             -5.0000000000000000e-01, -5.0000000000000000e-01,
             -5.0000000000000000e-01, -5.0000000000000000e-01,
             -5.0000000000000000e-01, -5.0000000000000000e-01,
             -5.0000000000000000e-01, -5.0000000000000000e-01,
             -5.0000000000000000e-01, -5.0000000000000000e-01,
             -5.0000000000000000e-01, -5.0000000000000000e-01,
             -5.0000000000000000e-01, -5.0000000000000000e-01,
             -5.0000000000000000e-01, -5.0000000000000000e-01,
             -5.0000000000000000e-01, -5.0000000000000000e-01,
             -5.0000000000000000e-01, -5.0000000000000000e-01,
             -5.0000000000000000e-01, -5.0000000000000000e-01,
             -5.0000000000000000e-01, -5.0000000000000000e-01,
             -5.0000000000000000e-01, -5.0000000000000000e-01,
             -5.0000000000000000e-01, -5.0000000000000000e-01,
             -5.0000000000000000e-01, -5.0000000000000000e-01,
             -5.0000000000000000e-01, -5.0000000000000000e-01,
             -5.0000000000000000e-01, -5.0000000000000000e-01,
             -5.0000000000000000e-01, -5.0000000000000000e-01,
             -5.0000000000000000e-01, -5.0000000000000000e-01,
             -5.0000000000000000e-01, -5.0000000000000000e-01,
             -5.0000000000000000e-01, -5.0000000000000000e-01,
             -5.0000000000000000e-01, -5.0000000000000000e-01,
             -5.0000000000000000e-01, -5.0000000000000000e-01,
             -5.0000000000000000e-01, -5.0000000000000000e-01,
             -5.0000000000000000e-01, -5.0000000000000000e-01,
             -5.0000000000000000e-01, -5.0000000000000000e-01,
             -5.0000000000000000e-01, -5.0000000000000000e-01,
             -5.0000000000000000e-01, -5.0000000000000000e-01,
             -5.0000000000000000e-01, -5.0000000000000000e-01,
             -5.0000000000000000e-01, -5.0000000000000000e-01,
             -5.0000000000000000e-01, -5.0000000000000000e-01,
             -5.0000000000000000e-01, -5.0000000000000000e-01,
             -5.0000000000000000e-01, -5.0000000000000000e-01,
             -5.0000000000000000e-01, -5.0000000000000000e-01,
             -5.0000000000000000e-01, -5.0000000000000000e-01,
             -5.0000000000000000e-01, -5.0000000000000000e-01,
             -5.0000000000000000e-01, -5.0000000000000000e-01,
             -5.0000000000000000e-01, -5.0000000000000000e-01,
             -5.0000000000000000e-01, -5.0000000000000000e-01,
             -5.0000000000000000e-01, -5.0000000000000000e-01,
             -5.0000000000000000e-01, -5.0000000000000000e-01,
             -5.0000000000000000e-01, -5.0000000000000000e-01,
             -5.0000000000000000e-01, -5.0000000000000000e-01,
             -5.0000000000000000e-01, -5.0000000000000000e-01,
             -5.0000000000000000e-01, -5.0000000000000000e-01,
             -5.0000000000000000e-01, -5.0000000000000000e-01,
             -5.0000000000000000e-01, -5.0000000000000000e-01,
             -5.0000000000000000e-01, -5.0000000000000000e-01,
             -5.0000000000000000e-01, -5.0000000000000000e-01,
             -5.0000000000000000e-01, -5.0000000000000000e-01,
             -5.0000000000000000e-01, -5.0000000000000000e-01,
             -5.0000000000000000e-01, -5.0000000000000000e-01,
             -5.0000000000000000e-01, -5.0000000000000000e-01,
             -5.0000000000000000e-01, -5.0000000000000000e-01,
             -5.0000000000000000e-01, -5.0000000000000000e-01,
             -5.0000000000000000e-01, -5.0000000000000000e-01,
             -5.0000000000000000e-01, -5.0000000000000000e-01,
             -5.0000000000000000e-01, -5.0000000000000000e-01,
             -5.0000000000000000e-01, -5.0000000000000000e-01,
             -5.0000000000000000e-01, -5.0000000000000000e-01,
             -5.0000000000000000e-01, -5.0000000000000000e-01,
             -5.0000000000000000e-01, -5.0000000000000000e-01,
             -5.0000000000000000e-01, -5.0000000000000000e-01,
             -5.0000000000000000e-01, -5.0000000000000000e-01,
             -5.0000000000000000e-01, -5.0000000000000000e-01,
             -5.0000000000000000e-01, -5.0000000000000000e-01,
             -5.0000000000000000e-01, -5.0000000000000000e-01,
             -5.0000000000000000e-01, -5.0000000000000000e-01,
             -5.0000000000000000e-01, -5.0000000000000000e-01,
             -5.0000000000000000e-01, -5.0000000000000000e-01,
             -5.0000000000000000e-01, -5.0000000000000000e-01,
             -5.0000000000000000e-01, -5.0000000000000000e-01,
             -5.0000000000000000e-01, -5.0000000000000000e-01,
             -5.0000000000000000e-01, -5.0000000000000000e-01,
             -5.0000000000000000e-01, -5.0000000000000000e-01,
             -5.0000000000000000e-01, -5.0000000000000000e-01,
             -5.0000000000000000e-01, -5.0000000000000000e-01,
             -5.0000000000000000e-01, -5.0000000000000000e-01,
             -5.0000000000000000e-01, -5.0000000000000000e-01,
             -5.0000000000000000e-01, -5.0000000000000000e-01,
             -5.0000000000000000e-01, -5.0000000000000000e-01,
             -5.0000000000000000e-01, -5.0000000000000000e-01,
             -5.0000000000000000e-01, -5.0000000000000000e-01,
             -5.0000000000000000e-01, -5.0000000000000000e-01,
             -5.0000000000000000e-01, -5.0000000000000000e-01,
             -5.0000000000000000e-01, -5.0000000000000000e-01,
             -5.0000000000000000e-01, -5.0000000000000000e-01,
             -5.0000000000000000e-01, -5.0000000000000000e-01,
             -5.0000000000000000e-01, -5.0000000000000000e-01,
             -5.0000000000000000e-01, -5.0000000000000000e-01,
             -5.0000000000000000e-01, -5.0000000000000000e-01,
