%YAML:1.0
# Taken from a single cartoon training image
yellow: !!opencv-ml-svm
   svm_type: C_SVC
   kernel: { type: LINEAR }
   C: 1.0000000000000001e-01
   term_criteria: { epsilon: 2.2204460492503131e-16, iterations: 10000 }
   var_all: 3
   var_count: 3
   class_count: 2
   class_labels: !!opencv-matrix
      rows: 1
      cols: 2
      dt: i
      data: [ -1, 1 ]
   sv_total: 25
   support_vectors:
      - [ 71., 238., 232. ]
      - [ 92., 240., 235. ]
      - [ 96., 240., 235. ]
      - [ 81., 239., 232. ]
      - [ 110., 242., 236. ]
      - [ 76., 239., 233. ]
      - [ 104., 242., 236. ]
      - [ 101., 241., 235. ]
      - [ 71., 238., 232. ]
      - [ 71., 238., 232. ]
      - [ 71., 238., 232. ]
      - [ 108., 242., 237. ]
      - [ 108., 242., 237. ]
      - [ 108., 242., 237. ]
      - [ 74., 239., 233. ]
      - [ 166., 247., 244. ]
      - [ 166., 247., 244. ]
      - [ 74., 239., 233. ]
      - [ 74., 239., 233. ]
      - [ 74., 239., 233. ]
      - [ 74., 239., 233. ]
      - [ 74., 239., 233. ]
      - [ 74., 239., 233. ]
      - [ 74., 239., 233. ]
      - [ 74., 239., 233. ]
   decision_functions:
      -
         sv_count: 25
         rho: -3.0598101889405473e+02
         alpha: [ 1.0000000000000001e-01, 1.0000000000000001e-01,
             1.0000000000000001e-01, 1.0000000000000001e-01,
             1.0000000000000001e-01, 1.0000000000000001e-01,
             1.0000000000000001e-01, 1.0000000000000001e-01,
             1.0000000000000001e-01, 1.0000000000000001e-01,
             1.0000000000000001e-01, -1.0000000000000001e-01,
             -1.0000000000000001e-01, -2.3846054256498897e-02,
             -9.0495636115291961e-02, -2.6320315127805718e-02,
             -3.0685039846182229e-02, -1.0000000000000001e-01,
             -1.0000000000000001e-01, -1.0000000000000001e-01,
             -1.0000000000000001e-01, -1.0000000000000001e-01,
             -1.0000000000000001e-01, -1.0000000000000001e-01,
             -2.8652954654220839e-02 ]
         index: [ 0, 1, 2, 3, 4, 5, 6, 7, 8, 9, 10, 11, 12, 13, 14, 15,
             16, 17, 18, 19, 20, 21, 22, 23, 24 ]
